tree
version=v2
num_class=1
num_tree_per_iteration=1
label_index=0
max_feature_idx=54
objective=regression
feature_names=airconditioningtypeid architecturalstyletypeid basementsqft bathroomcnt bedroomcnt buildingclasstypeid buildingqualitytypeid calculatedbathnbr decktypeid finishedfloor1squarefeet calculatedfinishedsquarefeet finishedsquarefeet12 finishedsquarefeet13 finishedsquarefeet15 finishedsquarefeet50 finishedsquarefeet6 fips fireplacecnt fullbathcnt garagecarcnt garagetotalsqft hashottuborspa heatingorsystemtypeid latitude longitude lotsizesquarefeet poolcnt poolsizesum pooltypeid10 pooltypeid2 pooltypeid7 propertylandusetypeid rawcensustractandblock regionidcity regionidcounty regionidneighborhood regionidzip roomcnt storytypeid threequarterbathnbr typeconstructiontypeid unitcnt yardbuildingsqft17 yardbuildingsqft26 yearbuilt numberofstories fireplaceflag structuretaxvaluedollarcnt taxvaluedollarcnt assessmentyear landtaxvaluedollarcnt taxamount taxdelinquencyflag taxdelinquencyyear censustractandblock
feature_infos=[1:13] none none [0:20] [0:16] none [1:12] [1:20] [66:66] [44:7625] [2:22741] [2:20013] none [560:22741] [44:8352] none [6037:6111] [1:5] [1:20] [0:24] [0:7339] none [1:24] [33339295:34816009] [-119447865:-117554924] [167:6971010] [1:1] [28:1750] [1:1] [1:1] [1:1] [31:275] [60371011.101001002:61110091.001019999] [3491:396556] [1286:3101] [6952:764167] [95982:399675] [0:18] none [1:4] none [1:143] [25:2678] none [1885:2015] [1:4] none [100:9948100] [22:27750000] none [22:24500000] [49.079999999999998:321936.09000000003] none [6:99] [60371011101001:61110091001020]
tree_sizes=5043 5185 5162 5146 5187 5164 5171 5195 5164 5190 5182 5188 5197 5213 5171 5154 5184 5165 5178 5200 5227 5159 5180 5178 5181 5155 5206 5188 5192 5209 5189 5220 5186 5165 5215 5157 5184 5180 5209 5179 5178 5186 5152 5175 5203 5189 5148 5186 5170 5161 5208 5150 5170 5176 5149 5154 5179 5194 5180 5194 5185 5193 5175 5202 5180 5170 5200 5175 5171 5143 5161 5202 5186 5184 5186 5173 5176 5174 5188 5189 5183 5179 5212 5188 5200 5188 5205 5159 5196 5176 5197 5170 5193 5177 5176 5218 5156 5171 5194 5166 5185 5179 5229 5142 5207 5186 5207 5165 5182 5177 5181 5195 5170 5186 5167 5202 5195 5177 5184 5177 5203 5198 5196 5165 5175 5184 5207 5186 5195 5178 5210 5209 5207 5190 5151 5147 5193 5215 5215 5191 5189 5185 5203 5174 5210 5190 5204 5194 5193 5204 5205 5185 5187 5201 5178 5204 5158 5188 5207 5168 5181 5159 5179 5210 5177 5190 5167 5200 5199 5162 5174 5168 5209 5146 5197 5193 5167 5177 5145 5209 5181 5195 5172 5183 5191 5196 5162 5188 5205 5187 5185 5172 5202 5166 5162 5213 5213 5172 5180 5178 5179 5201 5189 5209 5194 5181 5165 5194 5205 5173 5178 5192 5218 5190 5195 5189 5199 5173 5183 5221 5168 5203 5221 5181 5178 5180 5208 5177 5212 5189 5207 5210 5221 5165 5236 5172 5187 5168 5187 5189 5188 5210 5221 5190 5204 5194 5204 5200 5208 5198 5178 5219 5187 5213 5195 5188 5178 5217 5184 5195 5194 5193 5182 5170 5188 5222 5176 5217 5185 5240 5193 5189 5207 5214 5195 5219 5207 5172 5170 5193 5210 5178 5200 5200 5203 5231 5191 5194 5190 5195 5198 5208 5208 5179 5176 5180 5173 5175 5203 5177 5198 5213 5192 5212 5206 5178 5207 5199 5199 5166 5202 5200 5185 5168 5170 5181 5185 5209 5194 5194 5216 5184 5200 5220 5197 5233 5206 5193 5215 5161 5216 5159 5201 5188 5186 5194 5227 5179 5217 5200 5209 5199 5204 5197 5211 5194 5189 5203 5189 5227 5222 5188 5192 5166 5204 5223 5213 5188 5198 5189 5205 5184 5221 5185 5190 5168 5213 5189 5182 5183 5184 5225 5206 5218 5184 5230 5229 5218 5217 5218 5211 5216 5176 5160 5211 5215 5198 5200 5221 5215 5174 5221 5199 5198 5201 5196 5200 5195 5191 5207 5238 5208 5210 5191 5223 5192 5190 5210 5198 5188 5198 5190 5208 5211 5220 5216 5189 5242 5206 5192 5217 5191 5195 5210 5172 5185 5229 5213 5193 5198 5189 5207 5221 5193 5223 5180 5170 5193 5184 5167 5249 5208 5234 5177 5242 5190 5190 5199 5199 5200 5221 5215 5208 5211 5171 5197 5183 5178 5177 5201 5185 5194 5218 5215 5183 5212 5208 5205 5214 5233 5243 5204 5198 5205 5185 5238 5187 5239 5223 5223 5224 5199 5208 5198 5199 5197 5190 5211 5207 5223 5204 5202 5205 5195 5218 5199 5204 5210 5194 5206

Tree=0
num_leaves=60
num_cat=0
split_feature=11 50 26 54 11 36 35 18 53 24 36 11 35 47 11 11 50 47 35 47 54 18 47 9 32 36 32 24 11 47 33 35 33 50 35 11 33 36 24 0 35 37 47 11 36 32 50 24 35 47 47 36 11 36 26 24 24 36 54
split_gain=2.22714 0.820014 0.572479 0.801805 0.483313 0.434977 0.421349 0.380565 0.350775 0.342199 0.339516 0.708019 0.438468 0.396171 0.761512 0.299038 0.294315 0.289368 0.288855 0.282467 0.266022 0.329484 0.244131 0.241378 0.253855 0.23156 0.261353 0.291099 0.209972 0.209398 0.205344 0.165999 0.163581 0.163535 0.147405 0.184055 0.138285 0.130027 0.119349 0.260424 0.11821 0.116857 0.114944 0.103388 0.100414 0.098067 0.0968345 0.370796 0.208843 0.161742 0.0904272 0.100309 0.089947 0.141902 0.135987 0.120338 0.0859331 0.0839234 0.114933
threshold=2522.5000000000005 160029.00000000003 1.0000000180025095e-35 60379005062007.508 1637.5000000000002 96108.000000000015 268502.50000000006 4.5000000000000009 14.500000000000002 -118172996.99999999 96108.000000000015 1412.5000000000002 268502.50000000006 88071.000000000015 1.0000000180025095e-35 1948.5000000000002 316934.50000000006 59073.000000000007 115782.50000000001 59073.000000000007 60374038013006.008 1.5000000000000002 116260.00000000001 984.50000000000011 60375008.004007511 97049.000000000015 60379200.355000503 -117921098.99999999 1.0000000180025095e-35 281030.50000000006 32498.000000000004 32775.500000000007 24209.500000000004 228277.50000000003 1.0000000180025095e-35 1948.5000000000002 12483.500000000002 96479.500000000015 -118411427.99999999 1.0000000180025095e-35 115782.50000000001 4.5000000000000009 59073.000000000007 1637.5000000000002 96479.500000000015 60375008.004007511 40367.500000000007 -118172996.99999999 32775.500000000007 59073.000000000007 88071.000000000015 96108.000000000015 1412.5000000000002 96225.500000000015 1.0000000180025095e-35 -118305768.49999999 -118305768.49999999 96108.000000000015 60375519002002.508
decision_type=10 8 10 8 10 10 8 8 8 2 8 8 8 8 10 8 10 10 10 8 10 10 10 10 2 10 2 2 10 8 10 10 8 10 10 8 10 10 2 10 10 2 10 10 10 2 10 2 10 10 8 8 10 8 10 2 2 8 8
left_child=1 8 3 6 19 -4 -2 33 -1 -8 11 12 17 15 -15 25 18 -10 -6 30 21 22 -21 24 43 26 27 46 -22 -5 45 -23 -28 -7 -13 -36 -35 -17 39 -33 -40 -34 -27 -16 -38 -3 49 48 -48 56 -30 -52 53 -26 -54 -55 -12 -18 -59
right_child=2 4 5 29 16 7 9 -9 10 -11 13 34 -14 14 23 37 57 -19 -20 20 28 31 -24 -25 52 42 32 -29 50 -31 -32 38 41 36 35 -37 44 -39 40 -41 -42 -43 -44 -45 -46 -47 47 -49 -50 -51 51 -53 54 55 -56 -57 -58 58 -60
leaf_value=0.011449908236985155 0.011513499376671213 0.011405040489594009 0.011346917868002746 0.011396175128965539 0.011397984692783881 0.011376578552474067 0.011424433988553024 0.011454849734133682 0.011296717030555611 0.011487407573712983 0.01140768430304101 0.011382880651053402 0.011384335343301591 0.011315728721099436 0.011398156987405834 0.011462268806213895 0.011366521534487681 0.011362295226794859 0.011439501413036256 0.011317313684638997 0.01135045402777312 0.011353599729968787 0.011370468374065811 0.011425965886303478 0.0114045111003178 0.011445943486007021 0.01135805717295779 0.011451882248389953 0.011391164342230638 0.011429854445572851 0.011427332143437051 0.0113297470184726 0.011373649289092439 0.011442112688028697 0.011396119999264443 0.011450026730362181 0.011379091715896768 0.011416653416201692 0.011415832643501893 0.01139285894790399 0.011380146719790927 0.011407358331734925 0.011410338710074169 0.011419430397754194 0.011414434819564813 0.011366052786216885 0.01136357308384708 0.011450455806221387 0.011415685306770958 0.011428007104643688 0.011351084545503785 0.011380201466371392 0.011396967339399508 0.011389501426855804 0.011365695076141916 0.011359979596541879 0.011378712977588062 0.011401196378472376 0.011381232436916909
leaf_count=557 646 506 504 1299 4219 815 943 751 639 638 640 517 1174 552 3098 611 1002 554 896 1018 1015 1486 609 1045 669 815 772 623 3364 2181 773 539 741 500 509 619 548 502 571 620 1446 1169 785 1493 1004 650 592 789 794 535 556 8478 3603 937 739 1739 1533 1824 4200
internal_value=0 -0.00226562 0.0139169 0.0204029 -0.00562551 0.00493695 0.0352199 0.00877102 0.00160116 0.0264274 0.00112024 -0.00741389 -0.0184884 0.00250218 -0.00104221 0.00701356 -0.000576031 -0.03199 0.00519443 -0.00845968 -0.0095904 -0.0149567 -0.027209 0.00046575 -0.000776024 0.0052474 0.00309731 0.00704039 -0.00707428 0.0109209 0.00308906 -0.0106807 -0.00499763 0.0035219 0.00852133 0.0149299 0.00828163 0.0225456 -0.0065991 -0.014686 -0.00195226 -3.25164e-05 0.0162505 0.00510772 0.00362215 -0.0053479 0.00444321 0.00941218 -0.000439155 0.000452254 -0.0059422 -0.00759022 -0.00429004 -0.00818732 -0.00128765 -0.0114439 -0.00338248 -0.00477698 -0.00336744
internal_count=72946 63117 9829 5707 33772 4122 2227 3618 29345 1581 28788 4012 2367 24776 13875 10901 12141 1193 5115 21631 19702 6289 1627 13323 12278 9788 8188 5506 13413 3480 1929 4662 2682 2867 1645 1128 2052 1113 3176 1159 2017 1910 1600 4591 1552 1156 4883 2175 1386 2708 12398 9034 7687 3345 4342 2676 2173 7026 6024
shrinkage=1


Tree=1
num_leaves=60
num_cat=0
split_feature=51 10 50 22 33 51 18 10 3 23 51 31 26 19 23 31 33 23 3 10 10 51 23 23 23 51 34 31 23 22 31 22 33 26 50 26 39 51 23 23 50 23 51 10 26 10 31 33 17 51 10 23 37 50 37 26 33 23 31
split_gain=3.05604 2.56753 1.62171 1.31258 0.883058 0.782097 0.738465 0.608508 0.516072 0.468085 0.450785 0.439359 0.585441 0.498093 0.520728 0.404776 0.379136 0.587156 0.368194 0.330787 0.320457 0.309897 0.300407 0.236175 0.273073 0.232992 0.227904 0.207275 0.209987 0.197921 0.186574 0.211988 0.202011 0.182173 0.177089 0.1748 0.172803 0.162202 0.162182 0.140456 0.140107 0.131818 0.129882 0.129734 0.175301 0.128731 0.138901 0.118878 0.106595 0.163711 0.134221 0.237376 0.106338 0.105361 0.104458 0.0985329 0.0899554 0.0899503 0.0898274
threshold=2042.0300000000002 2576.5000000000005 40367.500000000007 6.5000000000000009 24209.500000000004 5060.130000000001 1.5000000000000002 1432.5000000000002 1.2500000000000002 34021193.500000007 3108.9000000000005 254.00000000000003 1.0000000180025095e-35 2.5000000000000004 34266246.500000007 254.00000000000003 12483.500000000002 33902989.000000007 4.2500000000000009 1661.5000000000002 1984.5000000000002 9102.8700000000008 34021193.500000007 33811160.000000007 34021193.500000007 4057.4700000000007 1673.5000000000002 265.50000000000006 33811160.000000007 1.0000000180025095e-35 262.00000000000006 1.0000000180025095e-35 32498.000000000004 1.0000000180025095e-35 316934.50000000006 1.0000000180025095e-35 2.5000000000000004 3108.9000000000005 33902989.000000007 33902989.000000007 470368.50000000006 34021193.500000007 3108.9000000000005 1233.5000000000002 1.0000000180025095e-35 1026.5000000000002 262.00000000000006 24209.500000000004 1.5000000000000002 4057.4700000000007 1984.5000000000002 34100672.000000007 1.0000000180025095e-35 228277.50000000003 6.5000000000000009 1.0000000180025095e-35 24209.500000000004 34172501.000000007 265.50000000000006
decision_type=8 10 10 8 8 8 8 10 2 2 10 2 10 8 2 2 8 2 2 10 10 8 2 2 2 10 2 2 2 10 2 10 8 10 10 10 8 10 2 2 10 2 10 10 10 10 2 10 8 10 10 2 2 10 2 10 10 2 2
left_child=8 2 3 37 -5 7 34 9 22 16 -9 -3 13 36 40 -12 17 -4 54 23 26 35 45 -8 38 30 47 28 -18 -28 31 -11 42 48 -7 41 -13 -2 -25 -37 -15 58 -33 -26 -45 46 -1 -10 49 -17 -50 -52 -29 -43 -14 -32 -55 -41 -21
right_child=1 11 5 4 -6 6 19 10 20 25 15 12 18 14 -16 33 27 -19 -20 21 -22 -23 -24 24 43 -27 29 52 -30 -31 55 32 -34 -35 -36 39 -38 -39 -40 57 -42 53 -44 44 -46 -47 -48 -49 50 -51 51 -53 -54 56 -56 -57 -58 -59 -60
leaf_value=6.9595251531652644e-05 -1.0582205146091124e-05 -1.6910302681002752e-05 -3.7361099371894809e-06 -0.0001700469604781396 -5.5292319094776303e-05 -8.1205328731802907e-05 -6.5724022271428442e-06 3.689907039946239e-05 -3.1429319582991865e-05 6.1851729095964769e-05 -5.0483643256120554e-05 3.791363894634756e-05 -1.200197756610273e-05 9.6147654802599078e-05 1.7531909915207721e-05 2.1580645734152896e-05 1.98619681844655e-05 -8.5331813561429569e-05 3.997010291145926e-05 -9.63361401322643e-06 5.5027433659285145e-05 -2.3568041584654474e-05 7.4359597050748885e-05 -3.3468452928209443e-05 -4.4175857856932378e-05 -1.4189981116973997e-05 5.5969009874248648e-05 -1.8463748704112057e-05 -1.2758277710452081e-05 1.7972805227671223e-05 -9.9183925288470547e-06 2.0919974256679831e-05 4.7565681798200887e-05 -1.2818649793537233e-05 -4.1307348519591472e-05 -4.3302702515332094e-05 3.4074835664248219e-09 -5.1458549436052713e-05 -7.142245215813184e-05 1.4993786005962123e-05 6.2455194910911776e-05 -2.7264953571830121e-06 -2.043010021721427e-05 -6.4118135634560751e-06 -4.4235875564666877e-05 9.9478692363833551e-06 2.357905333400623e-05 7.5688297469450283e-06 1.1208722125783334e-05 -2.8974161483591575e-05 6.428480406741627e-05 4.8516071182701095e-06 -4.7533871158938106e-05 3.9088619368233353e-05 1.7444239468437919e-05 1.6449822910959933e-05 1.1067248576034018e-05 -2.1769057841889909e-05 1.5538831157204235e-05
leaf_count=614 1277 992 710 597 586 706 2497 2380 512 531 560 1102 1910 1058 850 537 1313 860 1246 2436 1137 3276 1672 1080 832 2254 728 3458 2581 3566 1757 673 569 1472 1608 615 1022 644 919 564 1121 896 667 2466 692 596 547 1055 3573 596 644 549 661 979 736 970 1044 612 841
internal_value=0 -0.00272828 -0.0055308 -0.0277019 -0.0539063 -0.00413708 -0.00856533 -0.000560274 0.0157642 -0.0042357 0.00550091 0.0119257 0.0141168 0.0211086 0.0293415 0.00187883 -0.00885277 -0.0230628 0.00485953 -0.00658498 0.0108396 -0.00303254 0.0258145 -0.0112999 -0.0147063 0.0017265 0.00785903 -0.00606858 -0.000837717 0.011626 0.00542731 0.0117799 0.00686401 0.00384795 -0.0254668 0.000326863 0.00936784 -0.0115646 -0.0242462 -0.0083745 0.0375306 0.00284206 0.00016072 -0.00992685 -0.00700002 0.0166838 0.0228166 -0.00246352 0.00633133 -0.00238717 0.00840394 0.0175879 -0.0110137 0.00772917 -0.00181493 -0.000256743 0.0117275 -0.00197043 -0.00151116
internal_count=72946 62519 52482 3104 1183 49378 22063 27315 10427 17004 10311 10037 9045 5153 3029 7931 9583 1570 3892 19749 6998 11263 3429 8486 5989 7421 5861 8013 3894 4294 5167 2440 1909 7371 2314 7987 2124 1921 1999 1791 2179 6196 1340 3990 3158 1757 1161 1567 5899 1133 4766 1193 4119 2919 2646 2727 2023 1176 3277
shrinkage=0.0021


Tree=2
num_leaves=60
num_cat=0
split_feature=51 10 50 47 51 47 10 7 23 54 51 31 26 54 10 23 31 7 47 10 10 31 23 7 51 51 47 26 47 34 22 6 33 26 20 23 50 7 50 23 51 45 33 20 47 10 23 50 31 47 54 50 54 7 45 54 7 10 23
split_gain=3.04322 2.55676 1.61491 1.8864 0.778816 0.972703 0.605955 0.492151 0.466121 0.788919 0.448894 0.437516 0.582985 0.715477 0.435745 0.502182 0.403077 0.366649 0.34317 0.38432 0.314855 0.281276 0.274721 0.2447 0.237431 0.232015 0.261141 0.223958 0.214372 0.21265 0.197091 0.188727 0.212487 0.181408 0.173621 0.171029 0.168419 0.167434 0.16398 0.148819 0.13627 0.129751 0.127028 0.123171 0.116938 0.177273 0.116819 0.185043 0.135886 0.116581 0.11307 0.113025 0.108783 0.107127 0.106394 0.122779 0.183238 0.103227 0.159863
threshold=2042.0300000000002 2576.5000000000005 40367.500000000007 59073.000000000007 5060.130000000001 59073.000000000007 1432.5000000000002 1.2500000000000002 34021193.500000007 60374038013006.008 3108.9000000000005 254.00000000000003 1.0000000180025095e-35 60379005062007.508 1432.5000000000002 33811160.000000007 254.00000000000003 4.2500000000000009 59073.000000000007 1026.5000000000002 1984.5000000000002 265.50000000000006 34021193.500000007 1.2500000000000002 9102.8700000000008 4057.4700000000007 59073.000000000007 1.0000000180025095e-35 281030.50000000006 1673.5000000000002 1.0000000180025095e-35 2.5000000000000004 51739.000000000007 1.0000000180025095e-35 1.0000000180025095e-35 34021193.500000007 228277.50000000003 2.7500000000000004 470368.50000000006 34021193.500000007 9102.8700000000008 1.5000000000000002 24209.500000000004 630.50000000000011 116260.00000000001 1661.5000000000002 34266246.500000007 160029.00000000003 262.00000000000006 88071.000000000015 60375519002002.508 228277.50000000003 60374038013006.008 2.7500000000000004 1.0000000180025095e-35 60372118022001.508 3.2500000000000004 1984.5000000000002 34100672.000000007
decision_type=8 10 10 10 8 10 10 10 2 8 10 2 10 8 8 2 2 10 8 10 10 2 2 10 10 10 8 10 8 2 10 8 10 10 10 2 10 10 10 2 10 8 10 10 8 10 2 10 2 10 10 10 10 10 10 10 10 10 2
left_child=7 2 3 23 6 -6 8 18 9 -4 44 -3 13 38 15 -7 -12 54 19 22 29 27 -1 -2 -17 26 -10 35 -15 42 -31 -23 -33 57 41 -16 -37 -5 51 -21 -38 -11 -9 -30 45 -8 47 48 -28 -32 -22 -13 -35 -29 55 -14 -57 -18 -59
right_child=1 11 4 37 5 14 10 20 25 34 16 12 17 28 21 24 33 -19 -20 39 50 31 -24 -25 -26 -27 46 53 43 30 49 32 -34 52 -36 36 40 -39 -40 -41 -42 -43 -44 -45 -46 -47 -48 -49 -50 -51 -52 -53 -54 -55 -56 56 -58 58 -60
leaf_value=6.4467039491652669e-05 -0.00016350970427396003 -1.6874790930236366e-05 -7.4941964068588374e-05 -3.4171065010273994e-05 -9.4472713569455517e-05 2.8503847371183414e-06 2.6204746639543125e-05 -3.1363317681370973e-05 5.4760937674412241e-05 -4.8575226223631897e-05 -5.0377627082125398e-05 7.1502389752690849e-05 1.542635302672579e-05 1.9545058532835441e-07 -1.8563533174618027e-05 -3.6307476501155526e-05 8.140433286241948e-06 3.9886165805471001e-05 1.9893236249315989e-05 1.2198019325976072e-05 7.7283738665516203e-05 -3.253342229077814e-05 0.00012372645157425501 -9.9363171742072824e-05 -8.336905199586861e-05 -1.4160182201560232e-05 4.2066508075947125e-05 -4.3301557828640814e-05 2.6577721630424239e-05 5.5851475739333322e-05 2.3046049152591312e-05 2.0154868152993512e-05 -1.5725130043330135e-05 9.8207958282004425e-06 7.6151578406454856e-06 -2.7532813760030023e-05 1.5898065168666944e-05 6.3339924356278221e-06 5.5943975176657696e-05 6.208023585396631e-05 -1.347952716982414e-05 -1.4067284070970447e-05 8.9619909119384317e-06 6.2114579855485563e-05 2.2636125223164718e-05 7.8443740829935044e-05 -1.3564599137212139e-05 -1.0989968275185352e-05 1.0007285319307532e-05 -1.0273472334109706e-05 3.5308809583836074e-05 0.0001157628822557588 -2.720438614043159e-05 -1.6073079020733367e-05 1.7039094131404712e-05 -3.2034216386294315e-06 -5.3019936064271277e-05 4.9279379186749966e-05 5.8809196925400468e-06
leaf_count=823 509 992 982 1388 709 1462 578 512 547 519 560 501 512 1060 4655 3847 4400 1246 958 544 531 515 594 541 539 2254 922 1538 1488 728 3019 2675 1000 573 1601 783 2242 666 982 512 1010 6481 1053 605 1234 568 1023 1089 1586 547 606 517 899 1088 767 832 535 775 724
internal_value=0 -0.00272255 -0.00551918 -0.0276437 -0.00412839 -0.00854734 -0.000559098 0.0157311 -0.0042268 -0.00883418 0.00548936 0.0119006 0.0140871 0.0210643 -0.00733746 -0.0146931 0.00187488 0.00484933 0.0255414 0.0317661 0.0109199 -0.00456331 0.0425278 -0.0621233 -0.0200433 0.00172287 0.00541591 -0.00715496 0.0116796 0.00796457 0.0116016 0.00243601 0.00494838 0.00383987 -0.00576836 -0.00470943 5.55787e-05 -0.0100179 0.0358593 0.0173254 0.00322573 -0.00791705 -0.00201462 0.0175476 0.0175341 0.0248078 0.00296972 0.00565138 0.0103776 0.00854051 0.0261485 0.0447526 -0.0060913 -0.0152478 -0.00181111 -0.00586244 -0.0108095 0.00631804 0.013485
internal_count=72946 62519 52482 3104 49378 22063 27315 10427 17004 9583 10311 10037 9045 5153 21354 5848 7931 3892 3431 2473 6996 15506 1417 1050 4386 7421 5167 11316 3153 5859 4294 4190 3675 7371 8601 8690 4035 2054 2000 1056 3252 7000 1565 2093 2380 1146 4620 3597 2508 3566 1137 1018 1472 2626 2646 1879 1367 5899 1499
shrinkage=0.0021


Tree=3
num_leaves=60
num_cat=0
split_feature=51 11 50 44 44 51 44 11 47 25 23 11 36 7 47 4 51 51 44 22 23 3 44 50 20 20 11 6 25 23 11 51 25 36 3 23 25 44 50 23 50 36 20 11 6 47 6 47 44 47 50 36 25 44 25 22 25 22 4
split_gain=3.03045 2.96169 1.66253 2.0428 1.19982 0.83166 1.19753 0.731609 0.631038 0.559069 0.535943 0.462188 0.443461 0.585353 0.386296 0.287888 0.282921 0.271545 0.303922 0.399069 0.270389 0.235541 0.26017 0.207136 0.206729 0.194348 0.192026 0.247497 0.208959 0.184942 0.178904 0.361778 0.161542 0.159873 0.159248 0.343834 0.181581 0.151421 0.142998 0.145072 0.133553 0.132717 0.128796 0.119408 0.112159 0.1096 0.121048 0.102775 0.101956 0.100805 0.0947004 0.0940157 0.162698 0.091842 0.0840351 0.103343 0.0828107 0.148199 0.0843541
threshold=2042.0300000000002 2522.5000000000005 40367.500000000007 1946.5000000000002 1946.5000000000002 5060.130000000001 1955.5000000000002 1412.5000000000002 59073.000000000007 25263.500000000004 34021193.500000007 1017.5000000000001 96108.000000000015 1.2500000000000002 59073.000000000007 3.5000000000000004 3108.9000000000005 4057.4700000000007 1965.5000000000002 1.0000000180025095e-35 34021193.500000007 3.2500000000000004 1955.5000000000002 316934.50000000006 438.50000000000006 1.0000000180025095e-35 1637.5000000000002 2.5000000000000004 25263.500000000004 33682389.500000007 1637.5000000000002 9102.8700000000008 7645.5000000000009 96225.500000000015 1.2500000000000002 34021193.500000007 7645.5000000000009 1986.5000000000002 160029.00000000003 34021193.500000007 160029.00000000003 96974.500000000015 1.0000000180025095e-35 1948.5000000000002 5.0000000000000009 116260.00000000001 2.5000000000000004 281030.50000000006 1986.5000000000002 88071.000000000015 316934.50000000006 96974.500000000015 7645.5000000000009 1946.5000000000002 5985.5000000000009 6.5000000000000009 6723.5000000000009 6.5000000000000009 1.5000000000000002
decision_type=8 10 10 10 10 8 10 10 10 10 2 10 8 8 10 2 10 10 8 10 2 2 10 10 10 10 10 10 10 2 8 10 10 10 2 2 8 10 10 2 10 8 10 8 10 8 10 10 10 10 10 10 8 8 10 10 8 10 2
left_child=4 2 3 -2 11 7 8 10 -7 21 12 -1 13 -4 -5 23 -9 18 19 -12 -17 24 -23 53 38 56 44 33 -29 -6 54 -32 -16 -28 35 -31 -37 -11 -3 -40 -20 -26 -35 -36 47 46 -18 -8 -24 -21 -46 52 -50 -10 -25 -56 -14 58 -58
right_child=1 9 5 14 29 6 26 16 15 37 17 -13 25 -15 32 20 45 -19 40 49 -22 22 48 30 41 -27 27 28 -30 34 31 -33 -34 42 43 36 -38 -39 39 -41 -42 -43 -44 -45 50 -47 -48 -49 51 -51 -52 -53 -54 -55 55 -57 57 -59 -60
leaf_value=0.00011178745763504163 -0.0001793944911642022 1.083659287265538e-06 -8.7949053457926882e-05 -8.1488412806474648e-05 -8.8329264578699184e-06 -0.00010616052311422089 -1.5528764315111162e-05 3.3804222007470205e-05 -8.8706571398142832e-05 4.7755711880645008e-05 7.6675624658301451e-05 4.7820259384516889e-05 -7.8724687221043835e-06 -1.1111814404756202e-05 -3.8492771379658916e-05 -4.067667926963431e-05 6.6081602068754127e-07 -1.4954440094629214e-05 5.3767011915674455e-06 2.8550644461767185e-05 1.2528427969729009e-05 -8.0141340478550336e-06 6.1684353199629281e-05 -3.2893791460082861e-05 -3.4749706813788232e-05 8.3704840152498136e-06 -4.4460383699044764e-05 4.2206221528812545e-06 4.5249801653937372e-05 1.2197744266618432e-05 1.8722447755681058e-05 -4.698493091620878e-05 -7.9191718973444753e-07 1.2770099214836245e-05 1.5056535740961913e-05 4.0312348217304163e-05 9.542408139392872e-05 9.5208820274032631e-05 5.9295594479234666e-05 2.0459588811189139e-05 -2.9047538206698391e-05 5.740364168578868e-06 -1.3898849776578052e-05 4.0644923979721611e-05 -5.6650142085157992e-05 2.9154598276407939e-06 3.7189426476691499e-05 1.4963692908675379e-05 1.8469484422246276e-05 -2.6747401330613419e-06 -1.6876121307840708e-05 1.9216574189907776e-05 6.3185210960311353e-05 -5.099751261702315e-05 -3.5717596113098605e-05 -7.4164981279787654e-05 2.9387657677352955e-06 -4.9353940674100252e-05 -2.2659378953875513e-05
leaf_count=981 517 905 880 605 778 594 4926 2284 504 609 598 1012 2373 869 1079 760 677 2311 2189 993 945 553 809 1040 510 1534 569 3209 660 947 672 821 936 1082 4683 538 517 578 628 1307 643 1190 3049 971 512 5919 978 541 599 843 545 1035 895 655 524 749 711 788 2817
internal_value=0 -0.00271683 -0.0056516 -0.0279798 0.015698 -0.00424409 -0.00877035 -0.000551838 -0.0193199 0.013425 -0.00442421 0.0377649 -0.00924137 -0.023701 -0.016644 -0.0165385 0.00634167 0.00191559 0.0058814 0.014076 -0.00532744 0.0105643 0.0162737 -0.0203884 0.00567104 -0.00616586 -0.00369301 -0.00058069 0.00534269 0.0104835 -0.0168241 -0.00829048 -0.00999053 -0.00545677 0.0119763 0.0196407 0.032057 0.0337441 0.0108919 0.0157446 -0.00116155 -0.00305079 -0.00329222 0.00926238 -0.00778092 0.0033998 0.0105938 -0.00595777 0.019602 0.00676833 -0.0172106 0.0164761 0.021551 -0.0320931 -0.0223324 -0.0277805 -0.00849399 -0.011103 -0.0083336
internal_count=72946 62519 52901 3137 10427 49764 22357 27407 7264 9618 17549 1993 9972 1749 2620 6670 9858 7577 5266 2434 1705 8431 3891 4965 4540 8223 15093 8569 3869 8434 3806 1493 2015 4700 7656 2002 1055 1187 2840 1935 2832 1700 4131 5654 6524 7574 1655 5467 3338 1836 1057 2529 1494 1159 2313 1273 6689 4316 3528
shrinkage=0.0021


Tree=4
num_leaves=60
num_cat=0
split_feature=11 50 22 25 30 11 26 53 25 24 24 20 50 6 50 4 4 47 47 6 50 24 22 4 11 47 24 25 18 33 33 47 18 26 33 11 3 6 25 26 33 3 6 24 26 41 22 20 33 22 20 33 47 4 33 25 11 47 26
split_gain=2.19094 0.804088 0.645558 0.580694 0.680091 0.476531 0.401497 0.332289 0.321613 0.314331 0.330285 0.307755 0.306292 0.291746 0.291041 0.290466 0.288461 0.281094 0.267461 0.26657 0.265645 0.24801 0.292739 0.268342 0.227506 0.272302 0.244701 0.292209 0.222956 0.217714 0.214291 0.388465 0.25148 0.209109 0.204502 0.195264 0.182615 0.170072 0.160717 0.209148 0.137457 0.136403 0.134597 0.174613 0.155931 0.12744 0.127107 0.120165 0.118646 0.119782 0.165774 0.163007 0.113239 0.110193 0.124173 0.104275 0.10031 0.13634 0.0989739
threshold=2522.5000000000005 160029.00000000003 8.5000000000000018 25263.500000000004 1.0000000180025095e-35 1637.5000000000002 1.0000000180025095e-35 14.500000000000002 10232.000000000002 -117921098.99999999 -118305768.49999999 1.0000000180025095e-35 40367.500000000007 7.5000000000000009 316934.50000000006 2.5000000000000004 4.5000000000000009 59073.000000000007 59073.000000000007 2.5000000000000004 40367.500000000007 -118172996.99999999 6.5000000000000009 2.5000000000000004 1637.5000000000002 88071.000000000015 -118172996.99999999 5985.5000000000009 3.5000000000000004 12483.500000000002 12483.500000000002 59073.000000000007 1.5000000000000002 1.0000000180025095e-35 32498.000000000004 1412.5000000000002 3.2500000000000004 5.0000000000000009 10232.000000000002 1.0000000180025095e-35 32498.000000000004 4.2500000000000009 5.0000000000000009 -118559697.49999999 1.0000000180025095e-35 1.5000000000000002 1.0000000180025095e-35 1.0000000180025095e-35 42558.500000000007 6.5000000000000009 1.0000000180025095e-35 51739.000000000007 88071.000000000015 3.5000000000000004 42558.500000000007 10232.000000000002 1637.5000000000002 149847.00000000003 1.0000000180025095e-35
decision_type=10 8 10 10 10 10 10 8 10 2 2 8 10 8 10 2 2 8 8 10 10 2 10 2 8 8 2 8 8 8 8 8 8 10 10 10 2 10 8 10 8 2 8 2 10 8 10 10 8 8 8 8 8 2 10 8 10 8 10
left_child=1 2 7 6 -5 17 8 -1 36 10 12 -11 13 -9 33 42 -8 34 47 -10 24 22 28 29 26 -26 27 -12 52 -24 32 -32 -22 53 -3 46 -2 38 -16 -40 45 -18 44 -44 -14 -20 -17 -13 58 -50 -51 -52 -19 54 -7 -37 57 -33 -23
right_child=3 5 -4 4 -6 14 16 9 19 11 20 18 15 -15 37 35 41 21 40 -21 30 48 23 -25 25 -27 -28 -29 -30 -31 31 56 -34 -35 -36 55 -38 -39 39 -41 -42 -43 43 -45 -46 -47 -48 -49 49 50 51 -53 -54 -55 -56 -57 -58 -59 -60
leaf_value=5.5435153215147946e-05 1.3519968280530143e-05 -1.1103614857925361e-05 -7.0227798605783571e-05 0.00012754923925013928 2.6886354558052538e-05 1.7640946627242478e-05 -1.0021022420433998e-05 1.6698908430560182e-05 2.9676252871470323e-05 -1.1584795124850851e-05 -9.0052241199638222e-05 7.9446028713978648e-05 -1.996747264137239e-05 6.9915794646904211e-05 -2.1925275007175717e-05 5.7943556980825635e-05 9.726045825493358e-06 9.8192364614738454e-06 2.2485159771579114e-05 9.1579467862632329e-05 -4.7054099736867583e-05 -1.5010868221480438e-05 -8.7827584850649028e-05 -2.5618325598427808e-05 2.5739338737034033e-05 -2.8558209281558798e-05 -1.5919674057521287e-05 -2.1182326329983291e-05 -5.843369913670779e-05 -3.280984030666706e-05 5.4011301250827054e-05 2.5423686506977387e-06 -3.3678055838056512e-07 -1.5704674215720353e-05 3.3019461568956555e-05 -6.3602333730116284e-06 4.2367270104050992e-05 1.467166106099198e-05 1.4048981913795896e-05 -3.5318507859602967e-05 3.8338167041665999e-05 5.300057927398755e-05 -1.6597833369111007e-06 -4.3925847871743996e-05 2.4464775903287914e-05 -1.0325517297607812e-05 1.845941964414055e-05 3.4229175104449407e-05 -2.2553276494877269e-05 -2.0166925317427566e-05 -1.8629652196635681e-06 3.9833997308553371e-05 -1.954966342471578e-05 3.0616641801016994e-05 -1.6561459639724491e-05 2.0347587715949072e-05 1.8858149024462358e-05 -3.2631809596980906e-05 -4.1153374128563942e-05
leaf_count=557 2363 1156 517 540 655 1743 2099 1833 553 1178 500 501 681 604 4004 563 690 645 1153 689 730 5912 839 1413 984 695 2980 595 615 510 740 2487 1672 1040 773 1770 1639 1052 1459 511 925 601 783 959 713 954 995 537 952 775 914 755 5656 1692 640 1014 1121 604 716
internal_value=0 -0.00224711 0.00158193 0.0138034 0.0344639 -0.00557422 0.0109438 0.00221004 0.0164267 0.0017335 0.000141511 0.00871754 0.00449648 0.0142326 -0.000560289 0.00132358 0.00246245 -0.00838843 0.0128374 0.0304843 -0.00315262 -0.0095164 -0.0131272 -0.0218301 -0.00824194 0.00155409 -0.0122781 -0.0250618 -0.00965162 -0.031918 0.000829417 0.00458897 -0.00692133 0.00517799 0.00313221 0.00662019 0.0120639 -0.00473781 -0.00680242 0.000592146 0.00809424 0.0142246 -0.00600993 -0.0118705 0.00131364 0.00363298 0.0155845 0.0266921 -0.00603021 -0.00122387 0.00248277 0.00809493 -0.00787777 0.00840809 0.0040263 0.00160352 0.000876548 -0.00206232 -0.00849283
internal_count=72946 63117 29345 9829 1195 33772 8634 28828 5244 28271 23023 5248 9915 2437 12141 7478 3390 21631 4070 1242 13108 19702 9678 2762 5754 1679 4075 1095 6916 1349 7354 4952 2402 5115 1929 4342 4002 7026 5974 1970 3032 1291 3136 1742 1394 2107 1558 1038 10024 3396 2444 1669 6301 4075 2383 2784 4212 3091 6628
shrinkage=0.0021


Tree=5
num_leaves=60
num_cat=0
split_feature=51 11 44 44 51 36 10 35 10 35 25 30 11 11 25 22 35 51 34 22 30 32 11 11 10 30 30 51 32 44 45 34 22 31 11 25 32 51 35 51 9 45 44 35 25 3 51 11 32 44 36 45 51 36 25 32 3 32 25
split_gain=3.01522 2.93815 1.24939 1.19561 0.807009 0.672362 1.2506 0.757707 0.662459 0.763173 0.55436 0.689792 0.46029 0.40113 0.395679 0.35431 0.34352 0.28918 0.275202 0.262891 0.229872 0.43215 0.219744 0.214484 0.213736 0.20809 0.18721 0.183333 0.192792 0.294329 0.280753 0.178719 0.305969 0.1701 0.157738 0.149396 0.142437 0.132861 0.143032 0.138616 0.121777 0.107266 0.108552 0.105491 0.112243 0.104007 0.102051 0.120203 0.0996963 0.0975622 0.0942522 0.0932732 0.0896976 0.0879912 0.0875722 0.085806 0.085797 0.204248 0.134346
threshold=2042.0300000000002 2522.5000000000005 1955.5000000000002 1946.5000000000002 5060.130000000001 96108.000000000015 1233.5000000000002 115782.50000000001 1432.5000000000002 268502.50000000006 25263.500000000004 1.0000000180025095e-35 1017.5000000000001 1637.5000000000002 5985.5000000000009 8.5000000000000018 268502.50000000006 3108.9000000000005 1673.5000000000002 1.0000000180025095e-35 1.0000000180025095e-35 60376201.012007505 1637.5000000000002 1948.5000000000002 1984.5000000000002 1.0000000180025095e-35 1.0000000180025095e-35 4057.4700000000007 60375008.004007511 1986.5000000000002 2.5000000000000004 1673.5000000000002 1.0000000180025095e-35 265.50000000000006 1412.5000000000002 5985.5000000000009 60376201.012007505 3108.9000000000005 32775.500000000007 4057.4700000000007 1891.5000000000002 1.0000000180025095e-35 1976.5000000000002 115782.50000000001 6723.5000000000009 3.2500000000000004 9102.8700000000008 1637.5000000000002 60375008.004007511 1965.5000000000002 96974.500000000015 1.5000000000000002 4057.4700000000007 96974.500000000015 5985.5000000000009 60375008.004007511 1.2500000000000002 60375008.004007511 25263.500000000004
decision_type=8 10 10 10 8 10 8 10 10 8 10 10 10 10 10 10 8 10 2 10 10 2 10 8 8 10 10 10 2 10 8 2 10 2 8 8 2 10 10 10 8 10 10 10 10 2 8 10 2 10 8 8 10 8 10 2 2 2 10
left_child=3 2 4 12 5 6 7 -2 9 -6 16 -12 -1 15 -11 24 25 53 54 -20 21 -18 31 -8 27 -3 35 28 29 34 49 -7 -33 -28 -4 36 -19 55 39 -39 -37 42 -22 51 -45 50 -10 -48 -16 -30 -23 -42 -40 -15 -5 -34 57 -21 -58
right_child=1 10 13 18 8 22 23 -9 46 14 11 -13 -14 17 48 -17 20 26 19 56 41 45 -24 -25 -26 -27 33 -29 30 -31 -32 32 37 -35 -36 40 -38 38 52 -41 43 -43 -44 44 -46 -47 47 -49 -50 -51 -52 -53 -54 -55 -56 -57 58 -59 -60
leaf_value=0.00011155672528684562 -3.995214112458542e-05 7.1687041158299906e-05 1.3596437059307242e-05 -1.0986307824896191e-05 -0.00011659335136851825 2.2992843902958259e-05 -2.1400118956975982e-05 -0.00014030499801786692 -1.855436607562361e-05 -1.6161870884814465e-05 0.00012654303727636801 2.4783158479354687e-05 4.772096352729709e-05 5.1341328798735046e-05 -5.1962410874443526e-05 -6.2012513613521073e-05 6.3725176455865887e-05 1.8809951290655775e-05 6.0603974146688847e-05 6.1707493715693542e-05 -3.7537083378267964e-05 -1.5953965496384134e-05 2.7711993250535113e-05 3.1127909999281185e-05 -4.8599324698001505e-05 2.539569121188168e-05 -2.3502323522133863e-05 -1.4156087443698532e-05 3.1524553415091502e-05 -2.7521004625861722e-05 -1.6972450119117153e-05 -5.1388714300827203e-05 2.9126764735478991e-05 1.8242142023615334e-05 5.417129816946564e-05 3.5713470713906819e-05 -1.523027010817665e-05 1.6668093865330304e-05 -5.2649857867542171e-05 -1.8275399488484655e-05 -1.8172509174042256e-05 1.7529335148390358e-05 2.231610964053089e-06 4.2853133429424789e-06 4.7192636273129289e-05 2.4948978752732868e-05 -1.65624839088306e-05 -5.3612275384875827e-05 -9.1101263657122577e-05 2.0717428959726829e-06 1.3493713708993699e-05 7.0390582711827313e-06 -1.3202801188030189e-05 1.7268766888098958e-05 1.471048907393657e-05 -6.0814473589019715e-06 2.4513441121040886e-05 1.27318388871076e-05 -6.5841738715399905e-06
leaf_count=981 701 860 2010 1103 928 754 745 630 2815 1084 534 653 1012 630 558 572 926 706 996 733 562 733 926 635 586 853 2092 10386 718 664 4775 731 686 542 535 743 2335 931 502 1083 757 636 656 526 550 1820 626 1008 591 1604 1385 4459 515 712 1245 550 2803 770 784
internal_value=0 -0.00270986 -0.00563294 0.0156587 -0.0126955 -0.00649242 -0.019774 -0.0416438 -0.0203488 -0.0314177 0.0133677 0.0336011 0.0376868 -0.00228892 -0.0214009 -0.00496948 0.0105191 0.0018792 0.0104533 0.0140014 0.00729582 0.0109073 -0.00110063 0.00131923 -0.00430925 0.02316 0.000405126 -0.00377589 -0.000787762 0.00564432 -0.00369611 -0.00340224 -0.00556727 -0.00710121 0.0105362 0.00236738 -0.00348927 -0.00232881 -0.00589212 -0.00101061 0.00489902 -0.00217888 -0.00767531 0.0034693 0.0124845 0.00633651 -0.0124843 -0.0187706 -0.0343304 0.00532335 0.00157258 0.00160957 -0.0155591 0.01584 0.00125673 0.00640937 0.011094 0.0174366 0.00843644
internal_count=72946 62519 52901 10427 16999 9389 2711 1331 7610 3161 9618 1187 1993 35902 2233 21850 8431 14052 8434 6086 6718 4864 6678 1380 21278 1713 12710 20692 10306 3209 7097 5752 4998 2634 2545 10076 3041 4267 3031 2014 7035 1854 1218 6292 1076 3938 4449 1634 1149 2322 2118 5216 1017 1342 2348 1236 5090 1503 3587
shrinkage=0.0021


Tree=6
num_leaves=60
num_cat=0
split_feature=7 41 23 32 44 47 44 7 47 36 25 32 44 41 7 25 44 24 25 33 44 50 47 23 50 50 25 20 33 3 35 47 35 48 33 24 24 50 48 24 24 50 23 48 35 44 36 25 37 48 47 35 36 23 25 47 33 24 37
split_gain=1.15514 0.728884 0.599459 0.997027 1.18025 0.666203 0.472645 0.388969 0.324471 0.295885 0.409998 0.418147 0.308903 0.287485 0.333212 0.276658 0.421753 0.259142 0.346343 0.347872 0.327999 0.25199 0.387515 0.181405 0.284894 0.174387 0.233068 0.172649 0.166528 0.156901 0.15641 0.156268 0.147058 0.147012 0.143549 0.142857 0.141368 0.131808 0.201853 0.131586 0.327455 0.129815 0.126852 0.117696 0.227177 0.183938 0.212334 0.121412 0.103552 0.103035 0.137144 0.0981529 0.111716 0.097846 0.104563 0.0915362 0.110986 0.0826577 0.0817141
threshold=3.2500000000000004 2.5000000000000004 34021193.500000007 60374002.041019507 1946.5000000000002 88071.000000000015 1946.5000000000002 1.2500000000000002 195003.50000000003 96225.500000000015 25263.500000000004 60374002.041019507 1976.5000000000002 1.5000000000000002 2.7500000000000004 10232.000000000002 1976.5000000000002 -117921098.99999999 4928.5000000000009 24209.500000000004 1955.5000000000002 228277.50000000003 149847.00000000003 34266246.500000007 160029.00000000003 228277.50000000003 6723.5000000000009 400.50000000000006 12483.500000000002 1.2500000000000002 32775.500000000007 59073.000000000007 115782.50000000001 387758.50000000006 24209.500000000004 -118305768.49999999 -118559697.49999999 40367.500000000007 300895.00000000006 -118056897.49999999 -117778206.99999999 40367.500000000007 33902989.000000007 500519.00000000006 268502.50000000006 1998.5000000000002 96108.000000000015 10232.000000000002 1.0000000180025095e-35 128834.00000000001 116260.00000000001 115782.50000000001 96365.000000000015 33811160.000000007 4928.5000000000009 149847.00000000003 24209.500000000004 -118305768.49999999 5.5000000000000009
decision_type=10 10 2 2 8 8 10 8 8 10 10 2 8 10 8 8 10 2 10 8 8 10 10 2 8 10 8 10 10 2 8 10 10 10 10 2 2 10 10 2 2 10 2 10 10 10 10 8 2 10 8 8 10 2 10 10 10 2 2
left_child=2 9 3 4 7 17 8 -1 21 12 11 -11 -2 14 25 35 -17 18 -4 20 57 -7 -23 24 30 26 37 28 -28 -21 -8 -22 -10 -6 -29 -16 55 -5 -39 -13 -41 -38 -37 -26 45 46 -45 -48 49 -30 -51 52 -32 -27 -55 -25 -57 -20 -53
right_child=1 -3 5 13 33 6 23 -9 32 10 -12 39 -14 -15 15 16 -18 -19 19 29 31 22 -24 36 43 53 27 34 48 -31 51 -33 -34 -35 -36 42 41 38 -40 40 -42 -43 -44 44 -46 -47 47 -49 -50 50 -52 58 -54 54 -56 56 -58 -59 -60
leaf_value=-0.00011671889231169276 -1.8460431813387913e-05 -3.6999015980764878e-05 5.3011815976744192e-05 -9.1248868004621489e-06 1.667337568435535e-05 2.4795407803920917e-05 -1.5166258430969158e-05 -5.0213677491438616e-05 -7.2648025075153881e-05 8.820415544072519e-05 9.6405326358252769e-05 7.1501831843402851e-06 4.0347076527569626e-05 -4.6222736704850212e-05 -2.9149811511373984e-05 7.3244228326095842e-05 7.5914660566769502e-06 5.3714966466070152e-05 -8.2643668700156044e-06 4.9319290621972363e-05 5.1599445559085529e-05 -5.3446049247534825e-05 2.0557319460689896e-05 3.0954646435625314e-05 -8.421633071870579e-06 -9.134421576395337e-06 2.1190850761146575e-05 -1.4185901764510885e-05 8.5634180582713852e-06 1.5513780133157366e-05 5.7405841155555159e-05 5.9459160376638364e-06 -2.7339043486379953e-05 -2.5153556104856515e-05 3.281496947676862e-05 -8.1723385156874277e-07 -3.1062922036337582e-05 1.9738498426822825e-05 -1.3831677212267828e-05 6.1398591840215397e-05 4.993512360425222e-06 -6.6619139762352333e-06 3.4218616529822072e-05 -2.712167532162607e-05 -2.3667546787157448e-05 4.5360070591460838e-05 1.9426465325210223e-06 3.0746041598767962e-05 -3.4526544279344509e-05 -3.0693181254490115e-05 -4.8313846158320216e-06 1.2060918143660873e-05 1.5922264781166351e-05 -8.937051351284444e-07 -2.7747724039851316e-05 2.3024779152842755e-05 -1.5626730890057877e-05 -3.4110875063464103e-05 3.8271580164996238e-05
leaf_count=830 800 699 962 1730 790 663 564 728 680 563 574 1069 776 742 628 671 1209 899 1478 1029 520 822 503 542 4810 6371 509 503 770 1471 634 908 590 698 666 2467 1333 3599 1012 1026 814 3450 559 652 907 654 1395 1201 1350 1870 1751 3085 522 799 3202 523 877 865 632
internal_value=0 0.0128353 -0.00130977 -0.00429664 -0.0215454 0.00170258 -0.000851381 -0.0407825 -0.0120851 0.0166218 0.0211495 0.0170565 0.00499788 -0.00256882 -0.00208254 0.00491601 0.0147733 0.0095664 0.00757623 0.00486596 -0.00119837 -0.00410869 -0.0120727 0.000828953 0.00275771 -0.00368746 -0.00135356 -0.00515842 -0.00724471 0.0140134 0.00854362 0.0107478 -0.0245709 -0.00140336 0.00599587 -0.000155601 -0.00348917 0.00309814 0.0058908 0.0122286 0.017355 -0.00641065 0.00269287 -0.000512695 0.00298564 0.00629935 0.00321849 0.00727052 -0.0087817 -0.0064268 -0.00866059 0.0103683 0.018416 -0.00678373 -0.0106595 0.00370623 -0.000565539 -0.00847929 0.00786548
internal_count=72946 6321 66625 33454 3046 33171 25039 1558 3258 5622 4046 3472 1576 30408 29666 5534 1880 8132 7233 6271 3771 1988 1325 21781 15056 24132 13760 7419 6250 2500 5437 1428 1270 1488 1169 3654 6725 6341 4611 2909 1840 4783 3026 9619 4809 3902 3248 2596 5741 4391 3621 4873 1156 10372 4001 1942 1400 2343 3717
shrinkage=0.0021


Tree=7
num_leaves=60
num_cat=0
split_feature=4 25 44 36 23 23 36 4 23 25 26 4 36 26 6 25 4 25 36 26 26 23 36 44 25 0 36 36 45 23 4 44 44 0 23 36 45 23 25 6 20 23 25 25 25 23 23 44 36 23 6 4 45 20 0 25 44 23 14
split_gain=1.19236 0.765695 0.560038 0.614823 0.935306 0.531986 0.495592 0.709053 0.592503 0.309174 0.314306 0.29544 0.229566 0.229199 0.218205 0.215464 0.205222 0.205117 0.192468 0.189271 0.164493 0.160796 0.199246 0.175182 0.223184 0.152559 0.14498 0.130489 0.133126 0.204339 0.125115 0.187398 0.113595 0.100076 0.0983319 0.123161 0.0975725 0.0877073 0.129044 0.0821191 0.077424 0.0743343 0.0737687 0.0710197 0.0698787 0.0768573 0.0687368 0.0684916 0.0660506 0.119457 0.11536 0.0930831 0.0805444 0.0802755 0.065907 0.0655689 0.0653671 0.0650672 0.0618884
threshold=3.5000000000000004 10232.000000000002 1946.5000000000002 96108.000000000015 34021193.500000007 34021193.500000007 96108.000000000015 4.5000000000000009 33811160.000000007 10232.000000000002 1.0000000180025095e-35 2.5000000000000004 96479.500000000015 1.0000000180025095e-35 7.5000000000000009 5985.5000000000009 2.5000000000000004 6723.5000000000009 97049.000000000015 1.0000000180025095e-35 1.0000000180025095e-35 34266246.500000007 96225.500000000015 1955.5000000000002 5985.5000000000009 2.0000000000000004 96365.000000000015 96974.500000000015 1.5000000000000002 34100672.000000007 2.5000000000000004 1998.5000000000002 1998.5000000000002 2.0000000000000004 34172501.000000007 96225.500000000015 1.5000000000000002 34266246.500000007 6723.5000000000009 5.0000000000000009 1.0000000180025095e-35 34266246.500000007 5985.5000000000009 6723.5000000000009 25263.500000000004 34172501.000000007 34100672.000000007 1955.5000000000002 96479.500000000015 33682389.500000007 5.0000000000000009 4.5000000000000009 1.5000000000000002 528.50000000000011 2.0000000000000004 25263.500000000004 1965.5000000000002 33811160.000000007 1172.5000000000002
decision_type=2 8 8 10 2 2 10 2 2 10 10 2 10 10 8 8 2 8 8 10 10 2 10 8 10 8 10 10 8 2 2 8 8 8 2 10 8 2 10 8 8 2 10 8 10 2 2 8 10 2 10 2 8 10 8 10 10 2 8
left_child=2 5 3 4 15 32 -3 8 -8 13 18 -6 25 16 44 -1 17 40 30 37 54 22 23 24 -18 -5 46 28 -19 -30 31 39 48 -9 35 -15 56 38 -7 -11 -4 -21 -37 -25 -12 -46 -27 -40 50 53 -2 -52 -51 -50 -10 -32 57 -24 -38
right_child=1 6 9 12 11 19 7 33 20 10 14 -13 -14 34 -16 -17 21 27 -20 41 -22 -23 36 43 -26 26 -28 -29 29 -31 55 -33 -34 -35 -36 42 58 -39 47 -41 -42 -43 -44 -45 45 -47 -48 -49 49 52 51 -53 -54 -55 -56 -57 -58 -59 -60
leaf_value=-6.3401773146255837e-05 -3.1398416249099716e-05 -2.932653599028976e-05 -1.9896791485627866e-05 -4.7289314839508726e-05 -3.5218672947452944e-05 4.3368946307486387e-05 7.741562191732961e-05 5.7597446563429035e-05 3.5587492848139595e-05 4.8921377857198233e-06 -1.7987824629930271e-05 1.8215937712593586e-05 2.3744452206659374e-05 -4.1810834450326384e-05 -4.2591218332799667e-05 -0.00011553348043714851 -4.3503521273075191e-06 -5.8367611837803273e-05 4.6170284460573444e-05 7.8398084829045905e-06 -7.1224373714800957e-06 -1.5972558209640294e-05 1.7839865691421e-05 -5.5068837907520234e-06 -4.8040631710652396e-05 -8.3284662510841439e-06 -3.7684049751357331e-05 -7.7572960593513446e-06 -1.2999011019211428e-05 -5.2649989480707253e-05 3.1394904597376848e-05 3.7502867260472721e-05 1.2420025852649609e-05 8.9072443794073719e-05 -4.3908758827994791e-05 1.3881544637299461e-05 3.265711386218133e-05 1.254853496043031e-05 4.8164367902046474e-06 -1.7142477206880951e-05 4.2355163265384034e-06 -2.3558937273183017e-05 -1.6673057170597383e-05 1.9773366478012493e-05 1.0819671206631619e-05 -1.0473845961149372e-05 1.53936574353429e-05 2.9415573831557248e-05 -5.2318102816464631e-06 -8.4112392306973735e-06 3.5670955861782555e-06 -2.7960995229662702e-05 1.5583893044799209e-05 -3.6124791443093437e-05 1.0078038125001827e-05 1.090183496391379e-05 -1.4960575513463494e-05 -1.077350937922883e-05 9.2625940660907354e-06
leaf_count=1080 1332 522 714 504 999 1693 705 913 934 2126 881 840 921 615 658 517 1183 521 771 981 1380 2413 835 1348 914 1741 585 2556 2474 746 1486 601 1237 870 786 514 533 1984 896 1149 3278 503 1082 770 2064 1172 780 1127 873 1085 1355 594 1430 645 856 1283 1243 604 7744
internal_value=0 0.00608562 -0.00273334 -0.0104353 -0.0205231 0.00238122 0.0155175 0.0182375 0.0106439 -0.00130845 0.00295552 -0.00514826 -0.00278538 -0.00299219 -0.00337231 -0.0382278 -0.00209879 -0.00564616 0.00702987 0.00872491 0.00481246 -2.34565e-05 0.00118233 -0.00466061 -0.0111396 -0.00638066 -0.00376199 -0.00920118 -0.0129639 -0.0105644 0.00529457 0.00162701 -0.00294834 0.0347407 -0.0113019 -0.00788671 0.00342962 0.0113439 0.0142102 -0.00135166 -3.84443e-05 -0.00133465 -0.00325371 0.00175417 -0.000669792 0.00147985 -0.000470865 0.00881926 -0.00444726 -0.00173675 -0.007779 -0.00287704 0.00249148 -0.00874204 0.0111374 0.0104284 -0.00181224 0.0027761 0.00512814
internal_count=72946 21915 51031 7967 3436 15735 6180 5658 3875 43064 12191 1839 4531 30873 4775 1597 27876 10289 7416 7184 3170 17587 15174 4215 2097 3610 3106 6297 3741 3220 6645 3876 8551 1783 2997 2211 10959 5700 3716 3275 3992 1484 1596 2118 4117 3236 2521 2023 7314 4033 3281 1949 2515 1518 1790 2769 2682 1439 8277
shrinkage=0.0021


Tree=8
num_leaves=60
num_cat=0
split_feature=51 11 11 51 11 31 22 26 54 54 3 31 32 32 54 11 37 26 6 13 41 7 31 54 54 22 11 26 32 45 3 37 6 3 11 6 3 51 11 51 20 54 51 32 51 51 31 51 54 7 51 22 18 54 20 3 32 6 54
split_gain=3.00212 2.91325 1.00152 0.754372 0.669807 0.659807 0.580359 0.560196 0.736309 0.528756 0.377249 0.352787 0.297749 0.296875 0.269487 0.425908 0.262699 0.262694 0.24813 0.188561 0.330443 0.300506 0.17967 0.19429 0.170628 0.169828 0.164761 0.157094 0.15591 0.209459 0.208119 0.147438 0.139883 0.137755 0.134704 0.180973 0.126233 0.116326 0.11612 0.124955 0.112954 0.112683 0.109553 0.106246 0.104384 0.0990709 0.328469 0.0982335 0.0964761 0.0963 0.0896908 0.0895372 0.0855756 0.082974 0.0810809 0.0757511 0.0965826 0.0733436 0.0727503
threshold=2042.0300000000002 2522.5000000000005 1412.5000000000002 5060.130000000001 1017.5000000000001 265.50000000000006 6.5000000000000009 1.0000000180025095e-35 60379005062007.508 60374038013006.008 4.2500000000000009 265.50000000000006 60375008.004007511 60371942.002015002 60372118022001.508 1.0000000180025095e-35 1.0000000180025095e-35 1.0000000180025095e-35 2.5000000000000004 1705.5000000000002 2.5000000000000004 1.2500000000000002 262.00000000000006 60374038013006.008 60379005062007.508 1.0000000180025095e-35 1948.5000000000002 1.0000000180025095e-35 60371942.002015002 1.0000000180025095e-35 3.2500000000000004 6.5000000000000009 7.5000000000000009 2.7500000000000004 1948.5000000000002 5.0000000000000009 4.2500000000000009 3108.9000000000005 1948.5000000000002 9102.8700000000008 528.50000000000011 60374038013006.008 4057.4700000000007 60374002.041019507 3108.9000000000005 5060.130000000001 262.00000000000006 5060.130000000001 60375519002002.508 1.2500000000000002 9102.8700000000008 8.5000000000000018 1.5000000000000002 60374038013006.008 528.50000000000011 1.2500000000000002 60375008.004007511 5.0000000000000009 60590866014003.508
decision_type=8 10 10 10 10 2 10 10 8 10 2 2 2 2 8 10 2 10 8 10 10 10 2 8 10 10 10 10 2 10 2 2 8 2 10 8 2 8 10 10 8 8 10 2 10 10 2 10 8 8 10 8 10 10 8 2 2 10 8
left_child=4 2 6 17 5 25 14 8 50 13 28 27 -11 -8 45 19 22 34 -13 21 -21 -16 23 -17 -19 -1 31 38 -9 30 -30 55 42 -29 37 -36 -10 57 43 48 -37 -20 -14 -5 -18 46 -2 -25 -40 -7 -3 -45 -46 -52 -50 56 -6 -4 -53
right_child=1 7 3 11 26 49 9 10 36 12 -12 18 32 -15 15 16 44 24 41 20 -22 -23 -24 47 -26 -27 -28 33 29 -31 -32 -33 -34 -35 35 40 -38 -39 39 -41 -42 -43 -44 51 52 -47 -48 -49 54 -51 53 58 -54 -55 -56 -57 -58 -59 -60
leaf_value=0.00011308379995593029 5.6418170852655849e-05 8.819065964368876e-05 1.5190888390830815e-05 -3.6397265840787437e-05 5.4892460290496421e-05 3.9841430821175189e-05 -3.2978246115221127e-05 2.8512603153249843e-05 1.6790770650949556e-05 9.5793609897741423e-06 3.9623077840559007e-05 -3.8610927672234262e-05 -1.3441337590293689e-05 -7.6441343101911447e-05 -3.2029549081995428e-05 -7.0031916055328768e-05 1.8516439571395627e-05 5.0051260715038423e-06 3.1023099769992443e-05 6.6433350301332694e-06 -5.571561218205138e-05 -9.7220870850416553e-05 -1.3463171024021274e-05 -1.5872859877309387e-05 -3.3483777100985101e-05 6.9611479848264308e-05 4.5771106309284292e-05 -4.499001322028671e-05 -7.184025950035016e-06 1.5400841512747307e-05 -5.8510279444053591e-05 -1.2525039455450784e-05 -6.3593066499575458e-05 -1.345156769829077e-05 9.7418518762036439e-06 2.8681674682165169e-05 5.1964639632042433e-05 5.3442851226579589e-06 2.33506877469371e-05 -2.3647098958696088e-05 6.9979787191237164e-05 3.7560636199455943e-06 -3.8451878711336687e-05 -3.8320692549470622e-06 -2.2419389085061567e-05 -1.3647859003607078e-05 -5.3972952555219504e-06 -4.7376323386912377e-05 9.2042554057947329e-06 4.869067227131055e-06 4.3188643616657834e-05 -3.5268916090970608e-05 2.2977889661972535e-06 7.6973072280879439e-05 -2.0486997569537948e-05 1.7153634953864064e-05 1.710230726143677e-05 4.219723168226768e-05 -7.8023858826600973e-06
leaf_count=682 555 882 1268 1356 597 906 1164 521 2859 996 1245 524 1524 1713 715 520 1117 1278 876 723 778 553 7270 1541 843 946 1084 1579 922 811 560 638 512 996 1041 632 534 4702 757 1059 543 2820 1566 1748 897 831 1196 609 827 563 619 1127 1984 665 796 4415 596 682 683
internal_value=0 -0.00270362 -0.00561429 -0.00121132 0.015625 0.0279554 -0.00991411 0.0133057 0.019827 -0.0173945 0.00437434 -0.00578711 -0.0107416 -0.028027 -0.00701527 -0.00848468 -0.00623423 0.00509627 0.00197881 -0.0198125 -0.0122279 -0.0287908 -0.00898755 -0.016003 -0.00490116 0.0418204 0.0104153 -0.00878603 -0.00203816 -0.00558622 -0.0126565 0.00844015 -0.0149731 -0.0156148 0.00748741 0.01424 0.0106317 0.00523791 -0.00668091 -0.002224 0.022746 0.00486605 -0.0124365 -0.00980001 0.000611197 0.00249263 0.00675992 -0.0118078 0.00179687 0.0125896 0.0342314 -0.00692946 -0.00257043 0.0288981 -0.00255134 0.0100789 0.0171492 0.0117315 -0.0118593
internal_count=72946 62519 52901 26137 10427 3097 26764 9618 5559 7475 4059 15148 4598 2877 19289 16707 13938 10989 4220 2769 1501 1268 9940 2670 2121 1628 7330 10928 2814 2293 1482 6246 3602 2575 8868 2216 3393 6652 8353 3439 1175 3696 3090 4914 3998 2582 1751 2150 2380 1469 2166 3558 2881 1284 1623 5608 1193 1950 1810
shrinkage=0.0021


Tree=9
num_leaves=60
num_cat=0
split_feature=51 48 44 3 44 51 44 41 3 50 26 48 44 25 48 22 34 22 22 22 19 50 26 25 36 51 51 44 51 48 20 36 25 3 44 3 36 44 25 26 50 17 36 25 26 25 25 44 50 20 51 36 3 25 25 22 51 34 51
split_gain=2.98952 3.50075 1.33862 1.3055 1.19123 0.768827 0.94551 0.719686 0.718044 0.450901 0.389737 0.380167 0.375905 0.355647 0.597409 0.3036 0.272557 0.267662 0.262027 0.261056 0.245386 0.226782 0.225441 0.257829 0.248273 0.209258 0.194551 0.342407 0.152251 0.646324 0.31621 0.446708 0.167571 0.141332 0.136711 0.12415 0.209327 0.121099 0.117259 0.165884 0.113309 0.104206 0.10365 0.103491 0.100668 0.167097 0.160267 0.0977461 0.0972239 0.095199 0.0887579 0.0865392 0.0850579 0.13382 0.109732 0.0832052 0.0822436 0.0805111 0.154113
threshold=2042.0300000000002 128834.00000000001 1946.5000000000002 2.7500000000000004 1946.5000000000002 5060.130000000001 1955.5000000000002 1.5000000000000002 3.2500000000000004 228277.50000000003 1.0000000180025095e-35 387758.50000000006 1955.5000000000002 10232.000000000002 717888.50000000012 8.5000000000000018 1673.5000000000002 4.0000000000000009 1.0000000180025095e-35 1.0000000180025095e-35 2.5000000000000004 40367.500000000007 1.0000000180025095e-35 6723.5000000000009 96479.500000000015 9102.8700000000008 9102.8700000000008 1976.5000000000002 3108.9000000000005 219647.50000000003 1.0000000180025095e-35 96225.500000000015 25263.500000000004 4.2500000000000009 1998.5000000000002 1.2500000000000002 96225.500000000015 1986.5000000000002 25263.500000000004 1.0000000180025095e-35 160029.00000000003 1.5000000000000002 96108.000000000015 7645.5000000000009 1.0000000180025095e-35 25263.500000000004 7645.5000000000009 1986.5000000000002 228277.50000000003 438.50000000000006 4057.4700000000007 97049.000000000015 1.2500000000000002 25263.500000000004 7645.5000000000009 6.5000000000000009 6442.6450000000013 1673.5000000000002 9102.8700000000008
decision_type=8 10 8 2 10 10 10 10 2 10 10 10 10 10 10 10 2 8 10 10 10 10 10 10 10 10 10 10 8 10 8 10 10 2 10 2 10 10 8 10 10 8 8 10 10 8 10 10 10 10 10 10 2 10 10 10 10 2 10
left_child=4 2 -2 5 18 15 11 8 10 -9 13 -7 -10 26 37 21 49 -4 -1 -18 22 -3 23 -14 -25 35 -5 -28 30 -30 -23 -32 55 -24 40 -13 -37 50 39 48 -31 51 -40 -41 45 -43 -46 -12 -8 -6 -15 -42 54 -54 -21 -33 -44 58 -50
right_child=1 3 17 7 16 6 38 9 12 -11 47 25 20 14 -16 -17 19 -19 -20 52 -22 28 33 24 -26 -27 27 -29 29 34 31 32 -34 -35 -36 36 -38 -39 42 43 41 44 56 -45 46 -47 -48 -49 57 -51 -52 -53 53 -55 -56 -57 -58 -59 -60
leaf_value=0.00011569487951890909 -0.00017189959231640652 -3.3511878412554519e-05 -2.5202531152341853e-05 1.0234087349636741e-05 -8.5768151307723173e-06 -8.767986304189908e-05 -3.1210783079899096e-05 -7.3202043437445828e-05 -7.2078913453244461e-06 2.3076742202471278e-06 -5.3593133584694342e-06 -4.4184325960012924e-05 2.5784502771406711e-05 5.4123845834401431e-05 9.2777513230576849e-05 -5.1921890369235134e-05 6.0339392180882773e-05 -8.0626341106125899e-05 6.3152631274818804e-05 2.111961409449577e-05 8.5786993856346066e-05 -2.0183106681818588e-05 -2.49274509178852e-06 9.810355343383353e-05 4.007476123595449e-05 -5.7477192188934701e-05 -6.1494217650730627e-05 6.3795172998053901e-06 -6.3085837927731497e-05 1.1644509766492206e-05 -1.1555060396961126e-05 2.8938877730680323e-05 1.5355446628633546e-06 3.6839826549694408e-05 -2.7132628360461476e-05 -4.3973080986966625e-05 -2.4454814609732656e-06 5.2877903078599842e-06 -2.5321616458413786e-05 -1.4808522142796872e-05 -3.7636682306158672e-05 7.9075461918961707e-06 -5.3932179503933845e-06 -5.0425099955521385e-05 -4.5075150809890724e-05 -1.6423936182372315e-05 2.9586179403950602e-06 -2.9349333865932147e-05 -4.8004694769080336e-06 1.8592229281628461e-05 1.842349914391053e-05 -9.5713656010755769e-07 2.4390004441212936e-05 -6.6467155716964035e-06 5.7461147703625146e-05 5.4380859067087938e-05 1.883959837571819e-05 4.7055224493230504e-06 -4.510865484933285e-05
leaf_count=598 611 916 694 5557 1381 726 715 698 799 697 3106 1268 1087 525 571 531 996 861 1395 870 506 1390 792 662 639 1452 501 948 764 3413 1863 2266 825 820 796 864 1407 1487 505 680 633 6082 1145 764 531 1565 724 987 2156 967 740 514 2803 784 633 756 1341 2120 519
internal_value=0 -0.00269794 -0.0421977 -0.00128034 0.0155922 -0.00469299 -0.0101236 0.00505815 0.0066104 -0.0168925 0.00295129 -0.0203713 0.0165579 0.00622368 0.0147439 -0.00108427 0.0103963 -0.0266146 0.03758 0.0139273 0.0201026 -0.000539384 0.0174779 0.023646 0.0331439 -0.0172612 0.00218248 -0.00813724 9.90524e-05 -0.00170452 0.003915 0.00720767 0.0133628 0.00834054 -0.000186144 -0.0131136 -0.00868791 0.00863638 -0.00423254 -0.0064845 0.000566819 -0.00112395 0.00100321 -0.0160251 3.19548e-05 0.00139427 -0.00826897 -0.00530683 -0.0039842 0.00124404 0.0158285 -0.0100951 0.0110301 0.008384 0.0173453 0.0168112 0.00365641 -0.00236213 -0.00601001
internal_count=72946 62519 2166 60353 10427 39231 15662 21122 19727 1395 14422 5717 5305 10329 3323 23569 8434 1555 1993 6086 4506 23038 4000 2388 1301 4991 7006 1449 22122 15022 7100 5710 3847 1612 14258 3539 2271 2752 9945 6954 13462 10049 2991 1444 8902 7647 1255 4093 5510 2348 1265 1147 5090 3587 1503 3022 2486 4795 2675
shrinkage=0.0021


Tree=10
num_leaves=60
num_cat=0
split_feature=4 32 19 50 44 3 31 32 26 3 23 32 44 18 20 36 26 24 32 50 4 44 24 50 32 44 50 48 18 44 48 32 4 48 24 20 23 48 26 44 36 48 32 36 48 4 24 0 36 50 24 36 48 50 31 24 33 50 3
split_gain=1.18176 0.582651 0.633854 0.566049 0.67309 0.563745 0.382805 0.815754 0.493661 0.493032 0.353799 1.17117 0.856898 0.510712 0.33835 0.334588 0.297256 0.294234 0.282628 0.249049 0.203229 0.198312 0.195775 0.189739 0.205696 0.181134 0.241327 0.170842 0.208226 0.186523 0.155532 0.373822 0.167751 0.14288 0.217897 0.135332 0.128803 0.136354 0.126602 0.118101 0.11698 0.114142 0.149474 0.103538 0.102529 0.100705 0.141637 0.107715 0.0924164 0.120137 0.0880843 0.181778 0.149844 0.0874389 0.0867374 0.186518 0.086543 0.0791251 0.0785448
threshold=3.5000000000000004 60371942.002015002 2.5000000000000004 160029.00000000003 1955.5000000000002 3.2500000000000004 254.00000000000003 60375008.004007511 1.0000000180025095e-35 3.2500000000000004 34021193.500000007 60374002.041019507 1946.5000000000002 1.5000000000000002 1.0000000180025095e-35 96225.500000000015 1.0000000180025095e-35 -118411427.99999999 60376201.012007505 316934.50000000006 4.5000000000000009 1955.5000000000002 -117921098.99999999 98057.500000000015 60371942.002015002 1965.5000000000002 40367.500000000007 387758.50000000006 1.5000000000000002 1946.5000000000002 717888.50000000012 60376201.012007505 2.5000000000000004 128834.00000000001 -118172996.99999999 400.50000000000006 34266246.500000007 300895.00000000006 1.0000000180025095e-35 1986.5000000000002 96974.500000000015 300895.00000000006 60379200.355000503 96974.500000000015 717888.50000000012 2.5000000000000004 -118305768.49999999 1.0000000180025095e-35 96365.000000000015 160029.00000000003 -118305768.49999999 96108.000000000015 717888.50000000012 228277.50000000003 262.00000000000006 -118305768.49999999 32498.000000000004 160029.00000000003 2.7500000000000004
decision_type=2 2 10 8 10 2 2 2 10 2 2 2 8 8 8 10 10 2 2 10 2 10 2 10 2 8 10 10 8 8 10 2 2 10 2 10 2 10 10 8 10 10 2 10 10 2 2 10 10 10 2 10 10 10 2 2 10 10 2
left_child=3 5 6 10 15 38 7 -3 9 19 11 12 -1 23 39 17 30 -5 -11 25 58 -21 36 24 -12 26 -8 56 -29 -30 32 -32 -6 34 -26 -23 37 45 -2 -13 -16 42 -38 -37 -22 46 47 -15 57 -50 52 -52 -19 -53 55 -18 -17 -28 -10
right_child=1 2 -4 4 16 -7 8 -9 20 18 13 14 -14 22 40 27 54 50 -20 21 44 35 -24 -25 33 -27 48 28 29 -31 31 -33 -34 -35 -36 43 41 -39 -40 -41 -42 -43 -44 -45 -46 -47 -48 -49 49 -51 51 53 -54 -55 -56 -57 -58 -59 -60
leaf_value=-0.00011193705600435807 3.8136329317246604e-05 1.4305900566652239e-05 7.4120416992572635e-05 -8.2837563065805007e-05 -1.2581829493576486e-05 9.585468471218442e-05 3.2085462181115072e-06 -7.5082769506965347e-05 -3.0060222532418806e-05 8.7831031245080206e-05 7.6118309743376981e-06 -3.6177584224201476e-05 -1.5312277281062557e-06 -4.7396791328776694e-05 2.8795064488601169e-06 -1.2196136042239646e-05 -6.4647794243898019e-05 -6.9099635205869292e-06 3.1667825990086868e-05 -3.8936841721428493e-05 -9.0159042622015243e-06 2.2690461837845231e-05 2.9220942888091099e-05 7.2457698213745053e-06 9.8568210441162335e-05 8.4247207245002096e-06 1.0689244767304554e-05 -5.256458954437778e-05 -4.0049758620047568e-05 1.1052671353454138e-06 5.6527287192156459e-05 -2.7216778994542211e-06 2.9868698077820299e-06 2.6051722909848226e-05 4.074509919290363e-05 -3.2299796665672623e-05 -1.5288464030462272e-05 3.0060688119437862e-05 2.811571151003256e-06 3.9529623571541848e-07 2.2843511509480447e-05 -3.9608091842224395e-05 1.9142150139316765e-05 4.5814371803797804e-06 2.8094006954975955e-05 8.8755242043752052e-06 1.6106491977161272e-05 -7.4893904172696488e-06 7.9595452614346013e-05 3.4487738156550272e-05 -6.2720202302198562e-05 -3.2657283816790886e-06 -4.9773658869429101e-05 -3.9499294340712992e-05 -1.2704754057956562e-05 -1.6438763358751235e-05 1.4691554031960902e-05 4.7099629868076022e-05 -9.154647453240424e-06
leaf_count=755 1134 1111 634 605 5201 653 1024 757 1322 544 550 1243 526 517 5940 1228 563 1077 1444 612 554 961 1018 932 535 4127 533 868 764 1333 682 1508 7387 537 621 545 2134 811 739 567 1655 539 752 874 806 2535 554 705 510 532 991 505 540 702 1772 953 926 520 1979
internal_value=0 0.00605866 0.00419754 -0.00272101 -0.00578908 0.0203441 0.0031463 -0.0104374 0.0046489 0.00798728 0.000894383 -0.00334894 -0.0317155 0.00445358 0.000514705 -0.0125846 -0.00220099 -0.0189582 0.0223983 0.00518896 -0.00410781 -0.00248648 0.000805764 0.015443 0.0204261 0.00835829 0.0141095 -0.0070813 -0.0120053 -0.00661369 -0.000287647 0.00749018 -0.0016408 0.0258843 0.0321456 0.00164192 -0.000755595 0.00241884 0.0115232 -0.0117718 0.00344276 -0.00550288 -0.00300807 -0.00456365 0.00617961 0.000180964 -0.00559341 -0.0116063 0.0202592 0.0269359 -0.0157091 -0.0198305 -0.0101068 -0.0115902 -0.0108006 -0.0163535 -0.000303417 0.0136522 -0.0083462
internal_count=72946 21915 19389 51031 27605 2526 18755 1868 16887 12226 23426 10686 1281 12740 9405 9539 18066 4420 1988 10238 4661 2992 9565 3175 2243 7246 3119 5119 2965 2097 14778 2190 12588 1693 1156 2380 8547 5122 1873 1810 7595 3425 2886 1419 1360 4311 1776 1222 2095 1042 3815 2198 1617 1207 3288 1516 2154 1053 3301
shrinkage=0.0021


Tree=11
num_leaves=60
num_cat=0
split_feature=51 11 50 44 44 51 44 11 10 33 26 25 11 36 7 47 47 50 47 10 25 36 6 26 7 11 6 25 24 24 25 47 44 51 50 10 25 36 33 7 25 11 44 6 26 36 6 24 44 25 25 47 33 50 25 44 51 25 11
split_gain=2.97443 2.88578 1.64814 2.0199 1.18705 0.817773 1.17064 0.71646 0.633849 0.716864 0.555647 0.863405 0.456922 0.432394 0.479605 0.383652 0.354768 0.298769 0.281916 0.279507 0.240635 0.327667 0.221183 0.203486 0.191912 0.188048 0.244586 0.207376 0.185519 0.274983 0.278794 0.262277 0.260192 0.219068 0.172395 0.171179 0.160109 0.159544 0.155259 0.153911 0.362346 0.149884 0.149211 0.140223 0.113834 0.111716 0.111064 0.107942 0.106153 0.156655 0.105962 0.102166 0.0982082 0.0940426 0.0932949 0.0919446 0.0916653 0.0879577 0.0869814
threshold=2042.0300000000002 2522.5000000000005 40367.500000000007 1946.5000000000002 1946.5000000000002 5060.130000000001 1955.5000000000002 1412.5000000000002 1432.5000000000002 42558.500000000007 1.0000000180025095e-35 10232.000000000002 1017.5000000000001 96108.000000000015 4.2500000000000009 59073.000000000007 281030.50000000006 228277.50000000003 116260.00000000001 1661.5000000000002 5985.5000000000009 96365.000000000015 5.0000000000000009 1.0000000180025095e-35 3.2500000000000004 1637.5000000000002 2.5000000000000004 25263.500000000004 -118305768.49999999 -118172996.99999999 4928.5000000000009 88071.000000000015 1965.5000000000002 3108.9000000000005 228277.50000000003 1984.5000000000002 7645.5000000000009 96225.500000000015 32498.000000000004 1.2500000000000002 10232.000000000002 1948.5000000000002 1986.5000000000002 7.5000000000000009 1.0000000180025095e-35 96108.000000000015 5.0000000000000009 -118305768.49999999 1986.5000000000002 10232.000000000002 5985.5000000000009 281030.50000000006 32498.000000000004 316934.50000000006 10232.000000000002 1976.5000000000002 4057.4700000000007 5985.5000000000009 1637.5000000000002
decision_type=8 10 10 10 10 8 10 10 10 8 10 10 10 10 10 10 10 10 8 10 10 10 10 10 10 10 10 10 2 2 8 10 10 10 10 10 10 10 8 10 10 8 8 8 10 10 10 2 10 10 8 10 8 10 8 8 10 8 10
left_child=4 2 3 -2 12 7 8 28 9 20 11 24 -1 -12 34 -5 -13 -10 19 -9 -7 -22 52 48 55 46 37 38 42 30 -30 -32 33 -31 -15 47 -17 -27 -28 40 -6 -41 -4 -18 54 -33 51 -24 49 58 -50 -8 -19 -48 -39 -3 -25 -26 -20
right_child=1 10 5 15 39 6 25 18 17 -11 13 16 -14 14 -16 36 43 22 23 -21 21 -23 35 56 57 26 27 -29 29 32 31 45 -34 -35 -36 -37 -38 44 -40 41 -42 -43 -44 -45 -46 -47 53 -49 50 -51 -52 -53 -54 -55 -56 -57 -58 -59 -60
leaf_value=0.00011104974949801221 -0.00017837929339612526 -1.066751000716137e-05 6.1948024119131675e-06 -8.1125449012109103e-05 2.1129519825439598e-05 -6.1459541222537567e-05 -1.5368865073714393e-05 1.5326642543439491e-05 -7.0416176971878475e-05 -1.7526371486192422e-05 -4.8630766218394309e-05 4.1757446033503995e-05 4.7448010428281133e-05 -2.5212007222287335e-05 5.5278435006135444e-05 -3.825941625832789e-05 0.00012933304912066921 -2.3887028724596849e-05 -2.0418502457749197e-06 5.966551911931537e-05 -0.00014266840791707955 -6.9382643633500318e-05 -3.3659673801057576e-05 -7.8678151078681206e-07 1.8778109066540828e-05 -4.4353776802237762e-05 1.7473238186922944e-05 4.5059493238765169e-05 5.3069213794530243e-06 2.9345880271849483e-05 -6.7580509005367613e-05 -3.171147615832085e-06 -1.7801993310775806e-05 -5.1291430654339286e-06 1.2862789736240189e-05 2.219434719306134e-05 -7.261336950250552e-07 -9.7571032626124653e-06 -1.1872027622481263e-05 1.1779400343934168e-05 8.3171304461383968e-05 3.9061612789943738e-05 -2.2125743134173134e-05 8.0432338700992849e-05 -3.0251324343978191e-05 -4.0813998182226854e-05 -5.6312237246072525e-05 1.579590996373989e-06 -2.2629587595826013e-05 5.0320281464290601e-05 1.009399852196696e-05 1.5033041215418878e-05 -5.9127046587055182e-05 -1.6676592898828514e-05 1.3363301569744766e-05 1.9857507107650288e-05 -3.3513814398702382e-05 5.2211579700267205e-05 2.1587451974933092e-05
leaf_count=981 517 585 4467 605 1630 905 4926 1722 531 990 501 614 1012 744 1037 1079 530 930 1087 986 567 512 800 861 502 569 1756 660 727 1152 1001 659 5041 2761 1777 735 936 2196 1453 5175 557 1072 1005 505 750 736 512 736 625 592 1446 541 558 545 1185 1699 672 1124 1867
internal_value=0 -0.00269098 -0.0055879 -0.0278192 0.0155529 -0.0041865 -0.0086748 -0.000525199 -0.0191053 -0.0303245 0.0132427 0.0197375 0.037502 0.00434768 0.00822067 -0.0165472 0.038928 -0.0113277 0.00629657 0.0149861 -0.0412917 -0.0513778 -0.00819115 0.0030055 0.0116441 -0.00365478 -0.000574866 0.00531357 -0.00435727 -0.00654585 -0.0146256 -0.0198301 -0.00372778 0.00239067 0.000774342 -0.00198199 -0.00991648 -0.00542218 0.00199334 0.0103662 0.0175861 0.00783862 0.000473041 0.0502254 -0.00325986 -0.0109674 -0.00770012 -0.00798771 0.00579248 0.00911475 0.000104028 -0.00588589 -0.0176676 -0.0170837 -0.000787466 0.00573293 -0.00720613 0.0199474 0.00613926
internal_count=72946 62519 52901 3137 10427 49764 22357 27407 7264 2974 9618 5559 1993 4059 3558 2620 1649 4290 9858 2708 1984 1079 3759 7150 3910 15093 8569 3869 17549 12077 3123 2396 8954 3913 2521 2271 2015 4700 3209 8434 2187 6247 5472 1035 4131 1395 6524 1536 5617 3546 2071 5467 1488 1057 3381 2284 1533 1626 2954
shrinkage=0.0021


Tree=12
num_leaves=60
num_cat=0
split_feature=51 11 47 11 47 11 51 26 4 51 51 6 4 37 22 47 26 51 51 47 22 47 11 20 37 10 4 51 11 6 26 18 47 4 47 3 6 20 18 4 4 22 6 39 10 26 20 39 37 22 22 3 4 18 11 47 47 47 11
split_gain=2.96196 2.87368 1.35154 0.662853 0.846716 0.656928 0.630472 0.553316 0.751161 0.547117 0.458766 0.40722 0.458309 0.400032 0.35894 0.35821 0.289588 0.272047 0.255014 0.215394 0.195466 0.182416 0.163451 0.153982 0.146607 0.139945 0.135163 0.13129 0.128762 0.163158 0.194854 0.136631 0.126754 0.11811 0.115002 0.114168 0.113971 0.147525 0.110851 0.110807 0.108299 0.227424 0.101337 0.0991181 0.0924806 0.0923899 0.0769878 0.137899 0.0762934 0.0748757 0.0747773 0.0744944 0.109596 0.0707811 0.0847251 0.120622 0.0705177 0.0690601 0.0675557
threshold=2042.0300000000002 2522.5000000000005 59073.000000000007 1017.5000000000001 59073.000000000007 1637.5000000000002 6442.6450000000013 1.0000000180025095e-35 4.5000000000000009 4057.4700000000007 5060.130000000001 5.0000000000000009 2.5000000000000004 1.0000000180025095e-35 8.5000000000000018 116260.00000000001 1.0000000180025095e-35 9102.8700000000008 4057.4700000000007 281030.50000000006 4.0000000000000009 281030.50000000006 1948.5000000000002 630.50000000000011 6.5000000000000009 1984.5000000000002 3.5000000000000004 6442.6450000000013 1220.5000000000002 5.0000000000000009 1.0000000180025095e-35 2.5000000000000004 195003.50000000003 4.5000000000000009 281030.50000000006 4.2500000000000009 2.5000000000000004 528.50000000000011 1.5000000000000002 3.5000000000000004 2.5000000000000004 4.0000000000000009 7.5000000000000009 2.5000000000000004 1432.5000000000002 1.0000000180025095e-35 1.0000000180025095e-35 1.5000000000000002 1.0000000180025095e-35 6.5000000000000009 1.0000000180025095e-35 1.2500000000000002 2.5000000000000004 1.5000000000000002 1.0000000180025095e-35 116260.00000000001 116260.00000000001 195003.50000000003 1412.5000000000002
decision_type=8 10 10 10 8 10 10 10 2 10 10 10 2 2 8 10 10 10 10 10 10 8 10 10 2 10 2 10 10 8 10 10 10 2 10 2 10 8 8 2 2 10 8 8 10 10 8 8 2 10 10 2 2 8 10 10 10 10 10
left_child=3 2 6 4 20 10 13 14 26 15 28 34 27 18 19 -7 17 25 38 -3 -1 -16 24 43 51 46 -9 -13 29 30 -4 40 -19 -21 -12 -10 37 -27 -2 44 41 -31 -6 -23 48 -17 -11 -48 49 -30 -34 -5 -53 -14 -55 -56 -42 -38 -41
right_child=1 7 5 22 42 9 -8 8 35 16 11 12 53 -15 21 45 -18 32 -20 33 -22 23 -24 -25 -26 36 -28 -29 39 31 -32 -33 50 -35 -36 -37 57 -39 -40 58 56 -43 -44 -45 -46 -47 47 -49 -50 -51 -52 52 -54 54 55 -57 -58 -59 -60
leaf_value=0.00010862080238913017 -4.8011471493481185e-05 3.6741071955125682e-05 -1.3731929329304349e-05 3.5733380334231853e-05 3.2517559312543424e-05 6.0035175860860207e-05 -0.00011181526527341902 -4.0013048648455203e-05 2.5807079975821344e-05 1.9940217835078371e-05 -1.7394112025143434e-05 -4.7538944759796048e-05 -3.8802984371115247e-06 -3.9170346311920391e-07 -4.0948046947131387e-06 1.870365153395902e-05 -2.26026560121138e-05 -4.7098542067410221e-05 -8.0925486806167685e-05 8.4862529562172882e-05 6.5183453651737855e-05 3.8909383917850442e-05 4.5512891304183515e-05 6.2047845948336091e-05 -1.2586189665510752e-05 1.7429316900517863e-05 -4.6267885868401383e-06 -8.806424865733214e-05 -2.1225367355328215e-05 -1.1171053053530439e-05 2.5213938479456471e-05 -4.8116613761125004e-05 8.4077587531300915e-06 4.6921408166557621e-05 1.0616242974036656e-05 6.1373779657381756e-05 4.3663778827093277e-05 -2.4478888530366554e-05 -1.5336934843294234e-05 3.4310682397390516e-05 1.5074941348184296e-06 -4.0822491882190974e-05 -5.5546830125752998e-06 1.2171083295273212e-06 3.4248977309610796e-06 -1.0036137385188566e-05 -3.3296104632916881e-05 7.5408406631817948e-07 3.1019096850306175e-06 2.2352988570431936e-06 -2.017822254700583e-05 -2.7392531638210839e-06 2.2568131478139175e-05 -1.4123735458427042e-05 -1.6831047693870055e-05 -5.2284163246203288e-05 -2.1493142041955511e-05 1.7405870579018099e-05 3.4714466787197371e-06
leaf_count=930 1377 1287 1368 1193 741 921 573 645 754 654 5472 607 527 975 757 2313 3012 547 820 1145 898 654 1084 606 638 1161 1817 841 2807 3480 967 594 606 529 733 843 735 544 686 505 2109 1697 528 581 3081 627 624 3290 1207 763 1208 966 3449 924 681 1118 815 1107 825
internal_value=0 -0.00268533 -0.00557617 0.0155202 0.0277864 -0.00404791 -0.0222936 0.0132149 0.00433855 0.000882833 -0.00679664 -0.012025 -0.0190485 -0.0176965 0.0196961 0.0113789 -0.00212171 0.000362828 -0.0236182 0.0272229 0.041563 0.0111175 0.0103376 0.0164907 0.00837041 0.00311153 -0.00661779 -0.0338458 -0.00397714 -0.00628042 0.00114135 -0.0082735 -0.00908475 0.0347013 -0.00670725 0.0212293 0.0078242 0.00193239 -0.0176887 -0.00121209 -0.00720009 -0.00994794 0.00794125 0.0100844 -0.0026408 0.00598783 -0.000547799 -0.00222593 -0.0053959 -0.00771963 -0.00506121 0.0100045 0.00810995 -0.0124558 -0.0145089 -0.0185065 -0.00233496 0.0132778 0.00722909
internal_count=72946 62519 52901 10427 3097 48470 4431 9618 4059 17349 31121 10903 4698 3858 5559 3861 13488 10476 2883 2961 1828 2598 7330 1841 6246 8115 2462 1448 20218 11030 2335 8695 2361 1674 6205 1597 3547 1705 2063 9188 8101 5177 1269 1235 7858 2940 4568 3914 4777 3570 1814 5608 4415 3250 2723 1799 2924 1842 1330
shrinkage=0.0021


Tree=13
num_leaves=60
num_cat=0
split_feature=11 53 23 36 44 54 11 30 54 44 36 13 24 3 13 24 24 20 24 30 20 11 44 24 54 44 11 44 33 30 44 36 30 54 24 3 24 23 20 11 33 20 9 44 24 36 44 11 44 3 3 44 54 23 20 37 54 33 23
split_gain=2.12449 0.695627 0.619929 1.1106 0.435675 0.653139 0.779581 0.423654 0.894829 0.539273 0.441234 0.405679 0.37904 0.376182 0.305514 0.288411 0.287411 0.267884 0.260952 0.238489 0.172623 0.267905 0.185207 0.158473 0.155657 0.147244 0.142027 0.134094 0.15866 0.131377 0.27407 0.14998 0.123416 0.113657 0.112555 0.145117 0.388771 0.124499 0.149996 0.126659 0.118605 0.17919 0.107784 0.100376 0.0995881 0.0929771 0.0926454 0.0889732 0.0884598 0.0884617 0.0802868 0.0789135 0.0774916 0.072225 0.0721407 0.157595 0.0684905 0.0877028 0.0679565
threshold=2522.5000000000005 14.500000000000002 34021193.500000007 96108.000000000015 1946.5000000000002 60374038013006.008 1412.5000000000002 1.0000000180025095e-35 60379005062007.508 1955.5000000000002 96225.500000000015 3491.0000000000005 -117921098.99999999 3.2500000000000004 1.0000000180025095e-35 -117778206.99999999 -118559697.49999999 630.50000000000011 -118559697.49999999 1.0000000180025095e-35 1.0000000180025095e-35 1637.5000000000002 1986.5000000000002 -118411427.99999999 60590320493018.008 1976.5000000000002 1637.5000000000002 1946.5000000000002 32498.000000000004 1.0000000180025095e-35 1955.5000000000002 96974.500000000015 1.0000000180025095e-35 60372118022001.508 -118172996.99999999 1.2500000000000002 -117921098.99999999 33682389.500000007 528.50000000000011 1412.5000000000002 24209.500000000004 438.50000000000006 1331.5000000000002 1965.5000000000002 -117921098.99999999 96365.000000000015 1965.5000000000002 1637.5000000000002 1965.5000000000002 2.7500000000000004 1.2500000000000002 1986.5000000000002 60372118022001.508 34100672.000000007 400.50000000000006 6.5000000000000009 60375519002002.508 12483.500000000002 33811160.000000007
decision_type=10 8 2 10 8 10 8 10 8 10 10 8 2 2 10 2 2 10 2 10 8 10 8 2 10 8 10 10 8 10 10 10 10 10 2 2 2 2 8 10 8 8 8 10 2 10 8 8 10 2 2 10 10 2 10 2 8 10 2
left_child=1 -1 3 4 5 6 -3 8 9 -2 -9 -5 14 -12 16 17 19 44 -15 42 21 22 -13 -22 -17 47 27 28 -18 34 -31 -32 -28 -16 58 36 -36 38 39 -37 41 -39 54 -34 -10 -30 -44 -6 -42 -50 52 -11 -29 -54 -4 -56 -52 -58 -25
right_child=7 2 12 11 25 -7 -8 10 15 51 13 20 -14 18 33 24 26 -19 -20 -21 23 -23 -24 29 -26 -27 32 50 45 30 31 -33 43 -35 35 37 -38 40 -40 -41 48 -43 46 -45 -46 -47 -48 -49 49 -51 56 -53 53 -55 55 -57 57 -59 -60
leaf_value=5.2115410176785906e-05 2.3745411870592845e-05 -0.00013824482476353827 1.3729678118697967e-05 -6.0462013266781735e-05 -2.4149177070256714e-05 -8.9742959762830932e-06 -3.6461294926639265e-05 -3.338751901247539e-05 1.2779952509869299e-05 0.00011203266511691898 -1.5125552027764366e-06 -3.3945976294759189e-05 2.4569326065856598e-05 1.3019090172252616e-05 5.4649540968055804e-05 2.5703902423280936e-05 -3.532029076557137e-05 7.0507243105156768e-05 7.4181537499686131e-05 -1.5541003401732654e-05 -3.7222755740231541e-05 1.4140482372452991e-05 -7.0329083101787942e-06 2.3926277309282212e-06 -1.8605714587402552e-05 3.1299632688898338e-06 6.6725030619105512e-06 -1.0225054232451694e-05 -2.1998364331345588e-05 -5.9567452048977644e-05 6.4883936640017088e-06 -2.8410410251960405e-05 -2.8198971212426509e-07 1.4610515675699972e-05 3.1234993778408416e-07 2.4515138500214933e-05 5.6331415520348055e-05 -3.6379127725663981e-05 -3.7799422173375795e-05 -1.1730422737513998e-05 1.7583708403234271e-05 2.5283107293255248e-06 4.0761756716166235e-05 -3.3490092373103828e-05 4.6329830492389719e-05 1.7737342880619174e-05 1.5367148808453072e-05 -5.681868556307614e-05 -7.9415790414761113e-06 2.2500958091294589e-05 -6.4832343772660172e-06 8.1594587657176872e-05 3.2623227049926389e-05 9.1211232351941589e-07 -3.4064928011145601e-05 1.8093584388728473e-05 2.0014119670141805e-07 -2.8606612439146513e-05 -1.6463898146482694e-05
leaf_count=938 688 738 1832 614 1180 597 603 803 1479 651 1350 2755 2792 525 510 547 1824 656 743 1418 583 1054 1909 1271 969 634 4758 998 538 507 1543 838 941 808 1846 547 776 689 738 1909 2922 2154 971 700 530 502 1823 534 1626 568 5553 888 551 745 517 505 658 1598 2502
internal_value=0 -0.00221248 -0.00262023 -0.00572264 -0.0206899 -0.0317874 -0.0440364 0.0135927 0.0183897 0.0345812 0.00460737 -0.00337723 0.000593419 0.0108971 -0.000524011 0.00976529 -0.00126494 0.0160295 0.0232657 0.00419415 -0.0027936 -0.00766526 -0.0109192 -0.00146832 -0.00124667 -0.0115301 -0.00325678 -0.00515917 -0.011199 -0.00100454 -0.00725449 -0.00275921 0.00059826 0.0143351 2.40553e-05 0.00134952 0.00804362 -0.000224226 -0.00549834 -0.00174182 0.00189231 -0.00328614 0.00710512 -0.00687978 0.0103004 -0.00134202 0.0115203 -0.0163464 0.00477001 -2.87501e-05 -0.00344701 0.0449857 0.00175412 0.0068544 0.0027828 -0.00394852 -0.00497491 -0.00962126 -0.00481512
internal_count=72946 63117 62179 31637 4286 1938 1341 9829 6408 2227 3421 27351 30542 2618 27750 4181 26432 2665 1268 7066 26737 5718 4664 21019 1516 2348 19366 12967 2864 20436 2888 2381 6399 1318 17548 13775 2622 11153 3194 2456 7959 2843 5648 1641 2009 1040 2794 1714 5116 2194 10103 1539 2294 1296 2854 1022 7809 2256 3773
shrinkage=0.0021


Tree=14
num_leaves=60
num_cat=0
split_feature=51 11 50 44 44 51 44 11 26 50 23 19 11 36 7 36 3 23 44 51 51 34 51 44 11 36 24 36 24 26 41 7 41 11 50 26 44 34 19 50 11 44 51 41 36 23 23 37 24 50 11 44 23 51 24 23 11 50 23
split_gain=2.95076 2.85148 1.64014 2.00764 1.18175 0.812454 1.16214 0.709519 0.548933 0.525797 0.524217 0.475156 0.453752 0.431793 0.57725 0.429084 0.475173 0.418168 0.572334 0.348547 0.277932 0.269904 0.267527 0.302321 0.265781 0.258315 0.240071 0.23076 0.217764 0.210157 0.204744 0.195394 0.191292 0.186186 0.171641 0.143879 0.134742 0.240406 0.225895 0.132071 0.122189 0.15554 0.116422 0.202821 0.142738 0.108101 0.107484 0.0945364 0.109661 0.0925539 0.0894957 0.0981138 0.0871837 0.0830083 0.0829814 0.129755 0.14401 0.0861267 0.0807406
threshold=2042.0300000000002 2522.5000000000005 40367.500000000007 1946.5000000000002 1946.5000000000002 5060.130000000001 1955.5000000000002 1412.5000000000002 1.0000000180025095e-35 228277.50000000003 34021193.500000007 2.5000000000000004 1017.5000000000001 96108.000000000015 1.2500000000000002 96108.000000000015 4.2500000000000009 34266246.500000007 1955.5000000000002 4057.4700000000007 3108.9000000000005 1673.5000000000002 4057.4700000000007 1965.5000000000002 1017.5000000000001 96974.500000000015 -118411427.99999999 96225.500000000015 -117921098.99999999 1.0000000180025095e-35 2.5000000000000004 2.7500000000000004 1.5000000000000002 1637.5000000000002 228277.50000000003 1.0000000180025095e-35 1965.5000000000002 2581.0000000000005 1.5000000000000002 160029.00000000003 1948.5000000000002 1976.5000000000002 9102.8700000000008 2.5000000000000004 96365.000000000015 33902989.000000007 34021193.500000007 4.5000000000000009 -117921098.99999999 316934.50000000006 1017.5000000000001 1965.5000000000002 34021193.500000007 3108.9000000000005 -118559697.49999999 33811160.000000007 1412.5000000000002 228277.50000000003 34266246.500000007
decision_type=8 10 10 10 10 8 10 10 10 10 2 8 10 8 8 10 2 2 10 10 10 2 10 8 8 8 2 10 2 10 8 8 8 10 10 10 10 2 8 10 10 10 10 8 10 2 2 2 2 10 8 10 2 10 2 2 8 10 2
left_child=4 2 3 -2 12 7 9 10 11 -7 13 25 -1 14 -4 -10 34 18 -13 31 -9 47 23 32 -11 -3 27 -26 30 40 50 -5 53 54 -17 46 37 38 -15 58 -22 -42 43 44 -28 -37 49 -6 -49 -35 51 -23 -20 -12 -8 56 -56 -57 -25
right_child=1 8 5 19 21 6 33 20 15 24 22 17 -14 36 -16 16 -18 -19 52 -21 29 28 -24 39 26 -27 42 -29 -30 -31 -32 -33 -34 35 -36 45 -38 -39 -40 -41 41 -43 -44 -45 -46 -47 -48 48 -50 -51 -52 -53 -54 -55 55 57 -58 -59 -60
leaf_value=0.00011070485425021804 -0.00017784196454490649 -1.2139397262879634e-05 -8.6963820262439678e-05 -3.3984500003813173e-05 -1.9855393261672601e-05 -8.6019457659847063e-05 6.5861151599318158e-06 3.3485497206694018e-05 -4.8472565299242976e-05 -7.7945616529086694e-05 3.3783034441690078e-05 1.9580927852661188e-05 4.732408607917109e-05 -1.1414617438939631e-05 -1.0660261022644982e-05 -2.5175351931395723e-05 5.5007861035849699e-05 1.9389270764892045e-05 7.5715855242374481e-05 -7.4684750639157865e-05 6.9933014927049672e-06 5.6372186547971903e-05 -1.4753339517138503e-05 1.337884583762568e-05 -8.7764527304707679e-05 3.4472451679459308e-05 -1.5415721165780641e-05 -2.8281446034880782e-05 6.5976588870514003e-05 -1.5147390456950668e-05 5.5183251766316125e-05 1.2119026244714012e-05 6.3294714899017921e-05 1.2443693064780253e-05 1.2816088875314786e-05 -3.8274257831593444e-05 -1.9948508190564042e-05 -1.5923761640201103e-05 4.5479668684471167e-05 -2.8862123146623662e-05 5.4215983180222093e-05 1.1542195609305237e-05 -3.8123270381292734e-05 -5.1483130141302691e-05 2.2483377883944267e-05 -5.4917150095898602e-06 1.3259559832614871e-05 -6.5838699273745754e-06 2.6823680804784889e-05 -1.0432121981306637e-05 1.4028431001040071e-05 1.7400581563139317e-05 0.00010608597605136816 5.7587417927900162e-06 1.0572760367202564e-05 -4.6140848077381686e-05 -2.2947254353789362e-05 -2.1051308165490754e-05 -1.4941139305764598e-05
leaf_count=981 517 809 880 1336 614 950 642 2284 501 532 899 654 1012 548 869 744 1037 914 744 702 4495 530 2311 1570 538 1490 2112 618 631 1506 828 582 567 1096 1777 687 4770 2203 702 643 625 948 1400 561 553 1252 2829 849 885 2705 3481 616 948 968 1138 765 1123 2856 619
internal_value=0 -0.00268006 -0.00555971 -0.027737 0.0154911 -0.00416171 -0.0086354 -0.000512341 0.0131586 -0.019028 -0.0043258 0.0196141 0.0373912 -0.00908997 -0.0233581 0.00431752 0.00817566 0.027378 0.0344473 -0.0164992 0.0062763 0.010316 0.00194426 0.00588062 -0.0157278 0.00860481 -0.0137598 -0.0266499 0.0138297 0.00336049 0.0117953 -0.00952133 0.0140536 -0.00363364 0.000763818 -0.000569014 -0.00605519 -0.0012975 0.00977963 -0.00114375 0.0059847 0.0135704 -0.0105387 -0.00723389 -0.00359594 -0.00814608 0.00164696 0.00120833 0.00498414 -0.00182666 0.00920364 0.0168686 0.044158 0.00916811 -0.0076589 -0.00883715 -0.00289336 -0.0125485 0.00255742
internal_count=72946 62519 52901 3137 10427 49764 22357 27407 9618 7264 17549 5559 1993 9972 1749 4059 3558 3260 2346 2620 9858 8434 7577 5266 6314 2299 5782 1156 6086 7574 5455 1918 2434 15093 2521 8569 8223 3453 1250 2832 6068 1573 4626 3226 2665 1939 6630 2348 1734 3801 4627 1146 1692 1867 6524 5882 2261 3621 2189
shrinkage=0.0021


Tree=15
num_leaves=60
num_cat=0
split_feature=51 48 36 3 13 51 3 47 3 47 23 26 36 3 23 35 36 50 35 47 23 31 51 6 51 35 3 19 31 26 23 51 31 35 48 26 31 36 35 23 23 6 48 36 36 47 47 3 26 36 50 23 33 6 51 47 23 50 37
split_gain=2.93838 3.45373 1.30301 1.27542 1.18208 0.756573 0.693293 0.623412 0.500705 0.438288 0.398742 0.381446 0.378426 0.397412 0.348887 0.339996 0.739643 0.538542 0.33968 0.317045 0.359466 0.299703 0.309451 0.266253 0.259081 0.256073 0.222723 0.312525 0.221239 0.22677 0.218508 0.211434 0.207232 0.189947 0.17128 0.155988 0.146312 0.31814 0.291023 0.284828 0.188058 0.183993 0.142743 0.144097 0.139494 0.135359 0.128786 0.126463 0.121403 0.162599 0.119726 0.109284 0.16446 0.107704 0.104221 0.17092 0.0954164 0.093525 0.089501
threshold=2042.0300000000002 128834.00000000001 96108.000000000015 2.7500000000000004 3491.0000000000005 5060.130000000001 3.2500000000000004 59073.000000000007 1.2500000000000002 59073.000000000007 34021193.500000007 1.0000000180025095e-35 96108.000000000015 1.2500000000000002 34266246.500000007 268502.50000000006 96108.000000000015 470368.50000000006 48075.000000000007 59073.000000000007 34021193.500000007 265.50000000000006 9102.8700000000008 5.0000000000000009 4057.4700000000007 276455.50000000006 4.2500000000000009 2.5000000000000004 265.50000000000006 1.0000000180025095e-35 34266246.500000007 9102.8700000000008 265.50000000000006 268502.50000000006 387758.50000000006 1.0000000180025095e-35 262.00000000000006 96108.000000000015 115782.50000000001 33682389.500000007 34172501.000000007 7.5000000000000009 717888.50000000012 96365.000000000015 96974.500000000015 59073.000000000007 195003.50000000003 1.2500000000000002 1.0000000180025095e-35 96365.000000000015 228277.50000000003 34021193.500000007 32498.000000000004 1.0000000180025095e-35 3108.9000000000005 88071.000000000015 33682389.500000007 160029.00000000003 5.5000000000000009
decision_type=8 10 10 2 8 10 2 10 2 10 2 10 10 2 2 8 10 10 10 8 2 2 10 10 8 8 2 8 2 10 2 10 2 8 10 10 2 8 10 2 2 8 10 10 10 10 10 2 10 10 10 2 8 10 10 8 2 10 2
left_child=8 2 -2 5 25 10 11 -7 19 -4 12 36 13 -3 24 17 -17 -8 56 20 -1 22 34 -20 32 -5 35 -28 29 45 53 44 54 -24 -9 -18 37 -6 57 -39 41 42 43 -41 -23 -14 -35 -36 49 51 -26 52 -49 -13 55 -12 -10 -38 -47
right_child=1 3 9 4 6 7 15 21 18 -11 14 30 28 -15 -16 16 26 -19 23 -21 -22 31 33 -25 50 -27 27 -29 -30 -31 -32 -33 -34 46 47 -37 38 39 -40 40 -42 -43 -44 -45 -46 58 -48 48 -50 -51 -52 -53 -54 -55 -56 -57 -58 -59 -60
leaf_value=4.3029546171872646e-05 -0.00017929880407953924 -6.8726315744143808e-05 -8.7768707112109796e-05 -2.6521727273884608e-05 -2.6871722004232901e-05 -9.2408700326212508e-05 0.00010742452152131613 -4.574496373256119e-05 -1.1686593529386071e-05 -1.8130073222526015e-05 7.0996720392804474e-05 -2.45790380761479e-05 3.0199545765275607e-05 -6.3518093087362379e-06 -1.2248056990253479e-05 -5.1094848565757275e-05 3.2756088273755028e-05 2.2069658940461184e-05 2.2319249617076759e-05 2.0798224429535048e-05 9.3959026494982789e-05 -1.6886605458644982e-05 -7.5649168522503048e-05 7.4586240531931294e-05 -1.6801686539367295e-05 -9.227160817134347e-05 1.6653162459309112e-05 7.6749194721152444e-05 -1.6692854559472988e-05 -3.2193730914609898e-05 -4.5045635182217221e-05 3.8030119933122929e-05 5.8919949884684267e-06 -5.5817788097759447e-05 -3.488301575265703e-05 -5.4809895165510366e-06 7.0692109393009051e-06 -1.3497605167285942e-05 3.554890230560038e-05 2.1992975785357476e-05 1.6573987070792956e-05 1.5593618861955921e-05 8.4237117348997951e-05 6.6381870130900343e-05 1.4829254619397459e-05 -4.3456909555650854e-06 -1.9708631976986491e-05 -6.3541563917438807e-05 -2.8411584188345728e-05 1.7814915319327714e-06 1.186693257025574e-05 -4.4497041423204274e-06 -1.2804949270137014e-05 2.8228937779662451e-06 2.1941966132572865e-05 2.6692049877416932e-05 1.7037179515768888e-05 -1.628722732630159e-05 1.453310713067611e-05
leaf_count=1366 523 924 963 540 591 522 634 893 572 680 672 839 919 879 2939 500 1553 671 878 957 1106 2278 644 842 1300 506 621 990 4573 741 684 503 1931 712 1214 675 1301 761 947 696 2353 780 503 601 836 3103 1122 511 1495 3420 1270 884 628 2571 1700 896 4706 1805 1722
internal_value=0 -0.00267443 -0.0419081 -0.00126638 0.00499867 -0.00463949 0.00670625 -0.0100266 0.0154585 -0.0280699 -0.00105965 0.00303132 -0.00481276 -0.0182464 0.00344809 0.0161033 0.0118468 0.0302558 0.0106078 0.0253581 0.0313409 -0.00885514 -0.0113479 0.0228123 0.00695888 -0.0277753 0.0165586 0.025516 -0.00262242 0.00113369 -0.00513822 -0.000913843 0.011019 -0.0212486 -0.00863543 0.0100818 0.00626657 0.00928762 0.00158183 0.0115798 0.0143577 0.0202541 0.0258132 0.0202675 -0.00398667 0.00325762 -0.0160605 -0.00719516 -0.0055476 -0.0033553 -0.00125462 -0.0104618 -0.0169368 -0.00186624 0.0158721 0.0217523 0.0066306 -0.00309714 0.00113904
internal_count=72946 62519 2166 60353 21122 39231 20076 15662 10427 1643 23569 14432 12861 1803 10708 5644 4339 1305 6998 3429 2472 15140 11523 1720 7769 1046 3839 1611 11058 6485 4094 3617 5199 2478 9045 2228 10338 6285 4053 5694 4933 2580 1800 1297 3114 5744 1834 8152 6938 5443 2570 2023 1139 3410 3268 1568 5278 3106 4825
shrinkage=0.0021


Tree=16
num_leaves=60
num_cat=0
split_feature=11 53 36 25 30 11 44 25 54 30 11 25 7 44 30 54 25 32 4 32 9 33 7 30 25 6 31 25 36 44 11 6 4 44 33 36 30 36 41 0 33 32 33 32 44 4 44 33 11 7 44 13 44 33 4 33 32 33 11
split_gain=2.10169 0.693079 0.609911 0.570549 0.665525 0.530204 0.905245 0.862573 0.352464 0.42567 0.320701 0.293926 0.277787 0.218705 0.200648 0.211603 0.187039 0.188418 0.166381 0.16317 0.161222 0.148868 0.141405 0.177583 0.155865 0.274357 0.36975 0.201911 0.164097 0.154337 0.148485 0.133137 0.132093 0.170605 0.130209 0.134913 0.126164 0.211225 0.152373 0.119774 0.109552 0.1066 0.106121 0.109622 0.110749 0.104764 0.10125 0.0955141 0.0932845 0.263237 0.255234 0.098084 0.0899327 0.121301 0.088312 0.0867616 0.11091 0.128218 0.0972566
threshold=2522.5000000000005 14.500000000000002 96108.000000000015 25263.500000000004 1.0000000180025095e-35 1412.5000000000002 1946.5000000000002 4928.5000000000009 60375519002002.508 1.0000000180025095e-35 1637.5000000000002 4928.5000000000009 3.2500000000000004 1976.5000000000002 1.0000000180025095e-35 60375519002002.508 10232.000000000002 60376201.012007505 1.5000000000000002 60371942.002015002 1331.5000000000002 24209.500000000004 1.2500000000000002 1.0000000180025095e-35 10232.000000000002 5.0000000000000009 265.50000000000006 6723.5000000000009 96225.500000000015 1986.5000000000002 1220.5000000000002 5.0000000000000009 2.5000000000000004 1946.5000000000002 51739.000000000007 97049.000000000015 1.0000000180025095e-35 96225.500000000015 1.0000000180025095e-35 2.0000000000000004 24209.500000000004 60374002.041019507 51739.000000000007 60374002.041019507 1986.5000000000002 3.5000000000000004 1976.5000000000002 32498.000000000004 1948.5000000000002 2.2500000000000004 1965.5000000000002 1965.0000000000002 1986.5000000000002 51739.000000000007 1.5000000000000002 32498.000000000004 60375008.004007511 42558.500000000007 1412.5000000000002
decision_type=10 8 8 10 10 8 8 10 8 10 10 8 10 10 10 8 8 2 2 2 10 10 8 10 10 10 2 8 10 10 10 8 2 8 8 10 10 8 10 8 8 2 8 2 8 2 10 10 8 8 10 10 8 10 2 10 2 10 10
left_child=1 -1 5 8 -5 6 7 -3 9 13 12 -7 20 -2 16 -16 17 45 -8 -11 22 48 23 32 27 26 -26 28 -24 30 47 -30 34 -34 35 54 37 -10 -38 -17 -28 -27 43 -18 -45 -12 -39 -29 50 -50 -13 -51 53 -19 -4 58 -57 -58 -33
right_child=3 2 10 4 -6 11 18 -9 36 19 14 21 -14 -15 15 39 42 52 -20 -21 -22 -23 24 -25 25 41 40 29 31 -31 -32 55 33 -35 -36 -37 38 46 -40 -41 -42 -43 -44 44 -46 -47 -48 -49 49 51 -52 -53 -54 -55 -56 56 57 -59 -60
leaf_value=5.2036512618826179e-05 4.5109465072938837e-05 -8.4606013924762052e-06 5.1611768026570123e-06 0.00012597871113836036 2.6399668751098748e-05 4.2575966051784532e-05 1.915945277409652e-05 -0.00010070297169552278 5.6042522700800513e-05 3.9941605109029645e-05 5.4157116616957693e-06 -3.4634614812359105e-05 -5.455556608354947e-05 9.9184860851833575e-05 7.1069536644706627e-06 -5.1626560781412988e-05 -7.6936582128908546e-07 8.5703647689609396e-06 -2.0474264244035772e-05 -6.8161215006716399e-06 2.8702191622325108e-05 -4.0750101720390209e-05 -2.0105851130004269e-05 -2.7326051084426832e-05 6.3958901974416217e-05 -4.4511140862835273e-05 1.5988248974395293e-05 -2.3784040782292651e-05 -2.956255649764301e-05 -4.0247319853278721e-06 -1.5095476049737791e-05 3.9182840116248824e-06 4.8092599172763149e-05 7.0917001826580601e-06 2.4584839732974966e-05 2.5905687218909491e-05 1.5283923872304467e-05 -1.3221018612371931e-05 -2.8184215691056754e-05 -1.4318005702782855e-05 -7.5327428274171573e-06 -9.9713132672678764e-06 4.4518902736229478e-07 4.4902865463898963e-05 1.7691416005866372e-05 2.9443411087449532e-05 1.7661205908500688e-05 -4.7239450115526861e-05 3.5528565340857701e-05 -3.6830858294026005e-05 2.0135794200389765e-05 3.9179828061633784e-06 -1.2644988012390583e-05 -2.2434399075061289e-05 -1.616746251800778e-05 3.5947872162531974e-05 -1.4587708542291707e-05 1.7567293059901717e-05 -1.9669616689966994e-05
leaf_count=938 748 666 1225 540 655 504 610 1360 589 637 1755 1154 520 590 1807 525 563 3214 1994 681 592 634 2242 870 500 557 1575 1788 594 2627 4628 2372 595 1806 728 529 820 543 628 1369 1960 1347 939 1340 1299 1471 3398 1339 729 522 556 520 2660 673 2843 649 905 1382 1142
internal_value=0 -0.0022005 -0.0026075 0.0135197 0.0339989 -0.0100998 -0.0176622 -0.0335145 0.0106852 0.0202707 -0.0012983 -0.00251942 -0.00303674 0.0328354 0.00218698 -0.004357 0.00392762 0.00154103 -0.00532851 0.00751536 -0.00269388 -0.00531117 -0.00297707 0.000532322 -0.00415514 0.000334568 0.00500345 -0.00551086 -0.002123 -0.00854108 -0.0107851 0.000248614 0.00205755 0.00821537 -0.000718961 -0.0026868 0.00642642 0.00902374 -0.00169918 -0.0117427 0.00140329 -0.00955984 0.00956013 0.0123015 0.0150041 0.00779616 0.0063839 -0.0161085 -0.00274427 0.00234249 -0.00801249 -0.00785502 -0.00154115 0.00152484 -0.00464036 0.00156794 0.00558036 0.00230623 -0.0017845
internal_count=72946 63117 62179 9829 1195 9249 4630 2026 8634 2656 52930 4619 35315 1338 17615 3701 13914 9773 2604 1318 34795 4115 34203 8596 25607 5939 4035 19668 9286 10382 7755 7044 7726 2401 5325 4597 5978 4530 1448 1894 3535 1904 4141 3202 2639 3226 3941 3127 3481 1771 1710 1042 6547 3887 4068 6450 2936 2287 3514
shrinkage=0.0021


Tree=17
num_leaves=60
num_cat=0
split_feature=51 7 13 7 22 35 35 7 32 51 4 51 26 35 4 23 54 20 26 35 51 37 23 54 35 31 23 31 33 41 32 39 51 35 45 26 22 35 4 51 23 33 35 32 31 23 23 4 31 51 23 35 20 4 4 4 33 51 35
split_gain=2.92749 1.81711 1.11926 0.691307 0.638749 0.922457 1.18973 0.47741 0.419377 0.406105 0.393227 0.369238 0.351946 0.332617 0.309728 0.302901 0.425838 0.282127 0.419806 0.277212 0.274762 0.254903 0.398699 0.578073 0.357951 0.241557 0.234946 0.231559 0.219269 0.202032 0.252539 0.239463 0.200523 0.29898 0.200622 0.179063 0.167491 0.154187 0.147221 0.146324 0.303083 0.153859 0.135243 0.167346 0.139181 0.160153 0.312626 0.129835 0.137765 0.128405 0.124345 0.111754 0.194723 0.108866 0.108226 0.102419 0.117796 0.100473 0.0999305
threshold=2042.0300000000002 2.7500000000000004 3491.0000000000005 3.2500000000000004 6.5000000000000009 268502.50000000006 115782.50000000001 1.2500000000000002 60371942.002015002 4057.4700000000007 2.5000000000000004 4057.4700000000007 1.0000000180025095e-35 48075.000000000007 2.5000000000000004 34021193.500000007 60372118022001.508 630.50000000000011 1.0000000180025095e-35 276455.50000000006 3108.9000000000005 4.5000000000000009 34021193.500000007 60375519002002.508 115782.50000000001 262.00000000000006 34266246.500000007 265.50000000000006 24209.500000000004 2.5000000000000004 60376201.012007505 1.5000000000000002 9102.8700000000008 274548.50000000006 1.0000000180025095e-35 1.0000000180025095e-35 1.0000000180025095e-35 274548.50000000006 2.5000000000000004 4057.4700000000007 33902989.000000007 42558.500000000007 32775.500000000007 60375008.004007511 262.00000000000006 33682389.500000007 33811160.000000007 2.5000000000000004 262.00000000000006 9102.8700000000008 33682389.500000007 48075.000000000007 438.50000000000006 2.5000000000000004 2.5000000000000004 2.5000000000000004 24209.500000000004 5060.130000000001 274548.50000000006
decision_type=8 10 8 10 10 8 10 10 2 10 2 10 10 10 2 2 10 10 10 8 10 2 2 8 10 2 2 2 8 8 2 8 10 8 10 10 10 10 2 10 2 10 8 2 2 2 2 2 2 10 2 10 10 2 2 2 8 10 10
left_child=7 4 19 12 11 6 9 15 -5 -6 39 21 42 55 -11 47 -17 18 29 -3 -12 22 24 27 -2 32 54 -24 -20 30 -10 -31 35 -34 -35 51 -15 -26 -8 40 -7 -41 -4 -44 45 -45 -47 48 -1 53 -19 52 -13 -27 -14 56 -9 -53 -59
right_child=1 2 3 8 5 10 38 13 17 14 20 25 26 36 -16 16 -18 50 28 -21 -22 -23 23 -25 37 49 -28 -29 -30 31 -32 -33 33 34 -36 -37 -38 -39 -40 41 -42 -43 43 44 -46 46 -48 -49 -50 -51 -52 57 -54 -55 -56 -57 -58 58 -60
leaf_value=6.4430222866132644e-05 -9.4102632918116416e-06 -2.2162221563777635e-05 -1.5601442251397801e-05 8.1671629523978395e-05 1.249544384124511e-05 -5.0077620442492652e-05 -0.00014274028731720137 2.0412550453996421e-05 7.8102291552598231e-05 -9.1383449582546432e-05 3.7269702194588417e-05 -2.4825943042099892e-05 -2.9432664817033017e-05 7.6343953602624204e-05 -2.1948259291199833e-05 2.6641685326803622e-05 9.7195790058964709e-05 3.3432346830945082e-05 -4.3708832903521722e-05 -8.8960947285086542e-05 -9.4593297074152991e-06 1.600917310086026e-05 4.6126844368931171e-05 -1.8178062993848074e-05 -7.651316968325748e-05 -1.3254786187055718e-05 -4.5606697261688989e-05 7.8134973961167882e-06 1.0555431700264562e-05 4.0285341173275576e-05 1.9893381053979946e-05 -1.9164598134976405e-05 -7.6302316547180777e-05 -2.1461467978424225e-06 -5.3802061994926171e-05 -3.3826755573126978e-05 3.2761031507251703e-05 -2.6895046617843201e-05 -9.2250010405374688e-05 -6.7389234314997826e-05 6.8970330279812257e-06 -2.3873153171824833e-05 2.5802373847542521e-05 -1.2982597308107532e-05 -6.8840448428492195e-06 6.4718089206982797e-05 1.1604945886871088e-05 5.065504186803391e-06 2.0067249969432966e-05 2.8398426708913824e-05 7.9326453226851983e-05 2.2397170065580294e-05 -2.0090078973857599e-06 7.6763179770753131e-06 2.027058559974847e-06 1.9022987824981595e-05 -2.2675771108666861e-05 4.7634604153707805e-06 -3.2383155824940995e-05
leaf_count=702 3292 553 705 695 676 767 518 504 739 504 675 4427 580 594 647 575 1097 501 550 543 3119 3152 1407 2233 584 3459 695 1376 815 697 592 523 648 872 535 2113 1126 524 501 819 889 637 3637 759 1940 590 2847 506 551 508 542 670 2629 1604 2861 4143 629 863 507
internal_value=0 -0.00266928 0.00481335 0.00649651 -0.00655359 -0.0136232 -0.0287735 0.0154301 0.0158859 -0.013504 -0.00737962 -0.00435818 0.00286386 0.0106914 -0.0249298 0.0250924 0.0347297 0.0126617 0.00876904 -0.0263128 -0.000545548 -0.000160428 -0.00276606 0.00332842 -0.00971378 -0.00715921 -0.00494706 0.0129446 -0.00538538 0.0163428 0.024863 0.00704754 -0.00948011 -0.0185609 -0.0103752 -0.00781529 0.0227678 -0.0252607 -0.0561506 -0.0157114 -0.00928171 -0.0230243 0.00594708 0.00691201 0.00372618 0.00696459 0.00986782 0.0159317 0.0213914 -0.00163338 0.0272769 -0.0058889 -0.0077736 -0.00315411 -0.00155984 0.0067545 -0.00167072 0.000629951 -0.00427786
internal_count=72946 62519 21364 20268 41155 9752 2846 10427 5654 1827 6906 31403 14614 6996 1151 3431 1672 4959 3916 1096 3794 12568 9416 5016 4400 18835 4136 2783 1365 2551 1331 1220 13264 2055 1407 11209 1720 1108 1019 3112 1656 1456 10478 9773 6136 4196 3437 1759 1253 5571 1043 9096 7056 5063 3441 5276 1133 2040 1370
shrinkage=0.0021


Tree=18
num_leaves=60
num_cat=0
split_feature=51 11 50 44 44 51 44 11 10 35 25 30 23 11 54 44 26 54 44 35 47 25 50 47 10 34 51 44 25 24 35 26 23 11 54 26 25 7 44 25 47 44 25 35 51 50 23 34 24 35 16 51 44 25 25 11 44 50 51
split_gain=2.91521 2.8132 1.62675 1.99099 1.17393 0.805758 1.14941 0.702513 0.625836 0.689296 0.544438 0.674364 0.517988 0.451451 0.41241 0.977941 0.377687 0.473723 0.468977 0.422477 0.376675 0.299657 0.295057 0.280282 0.276365 0.267373 0.264642 0.299831 0.224253 0.216819 0.222216 0.199702 0.197005 0.184018 0.240051 0.245247 0.188893 0.171676 0.169667 0.159311 0.155366 0.152774 0.149177 0.146653 0.1334 0.131607 0.126638 0.118985 0.110605 0.109196 0.153941 0.105451 0.105146 0.155512 0.10519 0.103585 0.101808 0.101002 0.0905616
threshold=2042.0300000000002 2522.5000000000005 40367.500000000007 1946.5000000000002 1946.5000000000002 5060.130000000001 1955.5000000000002 1412.5000000000002 1432.5000000000002 268502.50000000006 25263.500000000004 1.0000000180025095e-35 34021193.500000007 1017.5000000000001 60374038013006.008 1946.5000000000002 1.0000000180025095e-35 60379005062007.508 1955.5000000000002 276455.50000000006 59073.000000000007 5985.5000000000009 228277.50000000003 116260.00000000001 1661.5000000000002 1673.5000000000002 4057.4700000000007 1965.5000000000002 6723.5000000000009 -117921098.99999999 32775.500000000007 1.0000000180025095e-35 34021193.500000007 1637.5000000000002 60375519002002.508 1.0000000180025095e-35 10232.000000000002 3.2500000000000004 1946.5000000000002 7645.5000000000009 281030.50000000006 1998.5000000000002 5985.5000000000009 276455.50000000006 9102.8700000000008 160029.00000000003 33811160.000000007 1673.5000000000002 -118172996.99999999 32775.500000000007 6048.0000000000009 3108.9000000000005 1986.5000000000002 10232.000000000002 5985.5000000000009 1017.5000000000001 1965.5000000000002 160029.00000000003 4057.4700000000007
decision_type=8 10 10 10 10 8 10 10 10 8 10 10 2 10 8 8 10 8 10 8 10 10 10 8 10 2 10 8 8 2 10 10 2 10 8 10 8 10 8 10 8 10 10 8 10 10 2 2 2 10 2 10 10 10 8 10 10 10 10
left_child=4 2 3 -2 13 7 8 12 9 -7 16 -12 14 -1 15 -4 17 18 -3 -20 -5 -11 -10 24 49 -6 27 42 51 30 -27 52 38 -8 41 36 -36 -18 -24 -22 -19 48 -14 -39 -34 -29 -30 -45 -35 50 -9 -16 53 -25 -54 -48 -32 -53 -33
right_child=1 10 5 20 25 6 33 23 22 21 11 -13 26 -15 28 -17 37 40 19 -21 39 -23 32 31 -26 29 -28 45 46 -31 56 58 44 34 35 -37 -38 43 -40 -41 -42 -43 -44 47 -46 -47 55 -49 -50 -51 -52 57 54 -55 -56 -57 -58 -59 -60
